digraph Tree {
node [shape=box] ;
0 [label="content_type <= 12.5\ngini = 0.5\nsamples = 54000\nvalue = [27000, 27000]\nclass = spam"] ;
1 [label="has_html <= 0.5\ngini = 0.2259\nsamples = 24686\nvalue = [3205, 21481]\nclass = ham"] ;
0 -> 1 [labeldistance=2.5, labelangle=45, headlabel="True"] ;
2 [label="raw_mail_len <= 18485.5\ngini = 0.4588\nsamples = 8513\nvalue = [3034, 5479]\nclass = ham"] ;
1 -> 2 ;
3 [label="headers_count <= 17.5\ngini = 0.4149\nsamples = 7559\nvalue = [2220, 5339]\nclass = ham"] ;
2 -> 3 ;
4 [label="the <= 0.5\ngini = 0.3562\nsamples = 6464\nvalue = [1499, 4965]\nclass = ham"] ;
3 -> 4 ;
5 [label="raw_mail_len <= 240.5\ngini = 0.1823\nsamples = 3234\nvalue = [328, 2906]\nclass = ham"] ;
4 -> 5 ;
6 [label="raw_mail_len <= 233.5\ngini = 0.4871\nsamples = 460\nvalue = [193, 267]\nclass = ham"] ;
5 -> 6 ;
7 [label="gini = 0.3692\nsamples = 348\nvalue = [85, 263]\nclass = ham"] ;
6 -> 7 ;
8 [label="gini = 0.0689\nsamples = 112\nvalue = [108, 4]\nclass = spam"] ;
6 -> 8 ;
9 [label="parts_count <= 2.5\ngini = 0.0926\nsamples = 2774\nvalue = [135, 2639]\nclass = ham"] ;
5 -> 9 ;
10 [label="gini = 0.0278\nsamples = 2338\nvalue = [33, 2305]\nclass = ham"] ;
9 -> 10 ;
11 [label="gini = 0.3584\nsamples = 436\nvalue = [102, 334]\nclass = ham"] ;
9 -> 11 ;
12 [label="uppercase_count <= 0.5\ngini = 0.4622\nsamples = 3230\nvalue = [1171, 2059]\nclass = ham"] ;
4 -> 12 ;
13 [label="gini = 0.0\nsamples = 639\nvalue = [0, 639]\nclass = ham"] ;
12 -> 13 ;
14 [label="has_link <= 0.5\ngini = 0.4954\nsamples = 2591\nvalue = [1171, 1420]\nclass = ham"] ;
12 -> 14 ;
15 [label="gini = 0.3999\nsamples = 637\nvalue = [461, 176]\nclass = spam"] ;
14 -> 15 ;
16 [label="gini = 0.4627\nsamples = 1954\nvalue = [710, 1244]\nclass = ham"] ;
14 -> 16 ;
17 [label="has_link <= 0.5\ngini = 0.4498\nsamples = 1095\nvalue = [721, 374]\nclass = spam"] ;
3 -> 17 ;
18 [label="content_type <= 7.5\ngini = 0.1904\nsamples = 563\nvalue = [503, 60]\nclass = spam"] ;
17 -> 18 ;
19 [label="spaces_over_len <= 0.0166\ngini = 0.0995\nsamples = 514\nvalue = [487, 27]\nclass = spam"] ;
18 -> 19 ;
20 [label="gini = 0.3658\nsamples = 83\nvalue = [63, 20]\nclass = spam"] ;
19 -> 20 ;
21 [label="gini = 0.032\nsamples = 431\nvalue = [424, 7]\nclass = spam"] ;
19 -> 21 ;
22 [label="recipient_count <= 1.5\ngini = 0.4398\nsamples = 49\nvalue = [16, 33]\nclass = ham"] ;
18 -> 22 ;
23 [label="gini = 0.1928\nsamples = 37\nvalue = [4, 33]\nclass = ham"] ;
22 -> 23 ;
24 [label="gini = 0.0\nsamples = 12\nvalue = [12, 0]\nclass = spam"] ;
22 -> 24 ;
25 [label="headers_count <= 20.5\ngini = 0.4837\nsamples = 532\nvalue = [218, 314]\nclass = ham"] ;
17 -> 25 ;
26 [label="content_type <= 3.0\ngini = 0.4375\nsamples = 430\nvalue = [139, 291]\nclass = ham"] ;
25 -> 26 ;
27 [label="gini = 0.0928\nsamples = 41\nvalue = [39, 2]\nclass = spam"] ;
26 -> 27 ;
28 [label="gini = 0.382\nsamples = 389\nvalue = [100, 289]\nclass = ham"] ;
26 -> 28 ;
29 [label="of <= 3.5\ngini = 0.3493\nsamples = 102\nvalue = [79, 23]\nclass = spam"] ;
25 -> 29 ;
30 [label="gini = 0.4824\nsamples = 32\nvalue = [13, 19]\nclass = ham"] ;
29 -> 30 ;
31 [label="gini = 0.1078\nsamples = 70\nvalue = [66, 4]\nclass = spam"] ;
29 -> 31 ;
32 [label="uppercase_count <= 739.0\ngini = 0.2504\nsamples = 954\nvalue = [814, 140]\nclass = spam"] ;
2 -> 32 ;
33 [label="subject_length <= 16.0\ngini = 0.1014\nsamples = 56\nvalue = [3, 53]\nclass = ham"] ;
32 -> 33 ;
34 [label="uppercase_count <= 217.5\ngini = 0.4444\nsamples = 3\nvalue = [2, 1]\nclass = spam"] ;
33 -> 34 ;
35 [label="gini = 0.0\nsamples = 1\nvalue = [0, 1]\nclass = ham"] ;
34 -> 35 ;
36 [label="gini = 0.0\nsamples = 2\nvalue = [2, 0]\nclass = spam"] ;
34 -> 36 ;
37 [label="raw_mail_len <= 19347.5\ngini = 0.037\nsamples = 53\nvalue = [1, 52]\nclass = ham"] ;
33 -> 37 ;
38 [label="in <= 3.0\ngini = 0.2778\nsamples = 6\nvalue = [1, 5]\nclass = ham"] ;
37 -> 38 ;
39 [label="gini = 0.0\nsamples = 1\nvalue = [1, 0]\nclass = spam"] ;
38 -> 39 ;
40 [label="gini = 0.0\nsamples = 5\nvalue = [0, 5]\nclass = ham"] ;
38 -> 40 ;
41 [label="gini = 0.0\nsamples = 47\nvalue = [0, 47]\nclass = ham"] ;
37 -> 41 ;
42 [label="content_type <= 6.5\ngini = 0.175\nsamples = 898\nvalue = [811, 87]\nclass = spam"] ;
32 -> 42 ;
43 [label="in <= 32.5\ngini = 0.4918\nsamples = 156\nvalue = [88, 68]\nclass = spam"] ;
42 -> 43 ;
44 [label="spaces_over_len <= 0.2076\ngini = 0.1362\nsamples = 68\nvalue = [5, 63]\nclass = ham"] ;
43 -> 44 ;
45 [label="gini = 0.0868\nsamples = 66\nvalue = [3, 63]\nclass = ham"] ;
44 -> 45 ;
46 [label="gini = 0.0\nsamples = 2\nvalue = [2, 0]\nclass = spam"] ;
44 -> 46 ;
47 [label="spell_error_count <= 1438.0\ngini = 0.1072\nsamples = 88\nvalue = [83, 5]\nclass = spam"] ;
43 -> 47 ;
48 [label="gini = 0.0681\nsamples = 85\nvalue = [82, 3]\nclass = spam"] ;
47 -> 48 ;
49 [label="gini = 0.4444\nsamples = 3\nvalue = [1, 2]\nclass = ham"] ;
47 -> 49 ;
50 [label="spaces_over_len <= 0.2222\ngini = 0.0499\nsamples = 742\nvalue = [723, 19]\nclass = spam"] ;
42 -> 50 ;
51 [label="subject_length <= 127.0\ngini = 0.0424\nsamples = 738\nvalue = [722, 16]\nclass = spam"] ;
50 -> 51 ;
52 [label="gini = 0.0348\nsamples = 733\nvalue = [720, 13]\nclass = spam"] ;
51 -> 52 ;
53 [label="gini = 0.48\nsamples = 5\nvalue = [2, 3]\nclass = ham"] ;
51 -> 53 ;
54 [label="mailer <= 971.5\ngini = 0.375\nsamples = 4\nvalue = [1, 3]\nclass = ham"] ;
50 -> 54 ;
55 [label="gini = 0.0\nsamples = 1\nvalue = [1, 0]\nclass = spam"] ;
54 -> 55 ;
56 [label="gini = 0.0\nsamples = 3\nvalue = [0, 3]\nclass = ham"] ;
54 -> 56 ;
57 [label="spaces_over_len <= 0.8015\ngini = 0.0209\nsamples = 16173\nvalue = [171, 16002]\nclass = ham"] ;
1 -> 57 ;
58 [label="a <= 19.5\ngini = 0.0182\nsamples = 16150\nvalue = [148, 16002]\nclass = ham"] ;
57 -> 58 ;
59 [label="headers_count <= 21.5\ngini = 0.0131\nsamples = 15875\nvalue = [105, 15770]\nclass = ham"] ;
58 -> 59 ;
60 [label="headers_count <= 18.5\ngini = 0.0116\nsamples = 15829\nvalue = [92, 15737]\nclass = ham"] ;
59 -> 60 ;
61 [label="the <= 50.5\ngini = 0.008\nsamples = 15385\nvalue = [62, 15323]\nclass = ham"] ;
60 -> 61 ;
62 [label="gini = 0.0071\nsamples = 15335\nvalue = [55, 15280]\nclass = ham"] ;
61 -> 62 ;
63 [label="gini = 0.2408\nsamples = 50\nvalue = [7, 43]\nclass = ham"] ;
61 -> 63 ;
64 [label="spell_error_count <= 23.5\ngini = 0.126\nsamples = 444\nvalue = [30, 414]\nclass = ham"] ;
60 -> 64 ;
65 [label="gini = 0.4444\nsamples = 27\nvalue = [18, 9]\nclass = spam"] ;
64 -> 65 ;
66 [label="gini = 0.0559\nsamples = 417\nvalue = [12, 405]\nclass = ham"] ;
64 -> 66 ;
67 [label="mailer <= 294.5\ngini = 0.4055\nsamples = 46\nvalue = [13, 33]\nclass = ham"] ;
59 -> 67 ;
68 [label="gini = 0.0\nsamples = 7\nvalue = [7, 0]\nclass = spam"] ;
67 -> 68 ;
69 [label="mailer <= 1336.5\ngini = 0.2604\nsamples = 39\nvalue = [6, 33]\nclass = ham"] ;
67 -> 69 ;
70 [label="gini = 0.0666\nsamples = 29\nvalue = [1, 28]\nclass = ham"] ;
69 -> 70 ;
71 [label="gini = 0.5\nsamples = 10\nvalue = [5, 5]\nclass = spam"] ;
69 -> 71 ;
72 [label="uppercase_count <= 698.5\ngini = 0.2638\nsamples = 275\nvalue = [43, 232]\nclass = ham"] ;
58 -> 72 ;
73 [label="gini = 0.0\nsamples = 206\nvalue = [0, 206]\nclass = ham"] ;
72 -> 73 ;
74 [label="mailer <= 1141.0\ngini = 0.4696\nsamples = 69\nvalue = [43, 26]\nclass = spam"] ;
72 -> 74 ;
75 [label="spaces_over_len <= 0.071\ngini = 0.2188\nsamples = 24\nvalue = [3, 21]\nclass = ham"] ;
74 -> 75 ;
76 [label="gini = 0.0\nsamples = 3\nvalue = [3, 0]\nclass = spam"] ;
75 -> 76 ;
77 [label="gini = 0.0\nsamples = 21\nvalue = [0, 21]\nclass = ham"] ;
75 -> 77 ;
78 [label="of <= 19.0\ngini = 0.1975\nsamples = 45\nvalue = [40, 5]\nclass = spam"] ;
74 -> 78 ;
79 [label="gini = 0.0\nsamples = 3\nvalue = [0, 3]\nclass = ham"] ;
78 -> 79 ;
80 [label="gini = 0.0907\nsamples = 42\nvalue = [40, 2]\nclass = spam"] ;
78 -> 80 ;
81 [label="gini = 0.0\nsamples = 23\nvalue = [23, 0]\nclass = spam"] ;
57 -> 81 ;
82 [label="recipient_count <= 1.5\ngini = 0.3057\nsamples = 29314\nvalue = [23795, 5519]\nclass = spam"] ;
0 -> 82 [labeldistance=2.5, labelangle=-45, headlabel="False"] ;
83 [label="uppercase_count <= 0.5\ngini = 0.4979\nsamples = 10647\nvalue = [5665, 4982]\nclass = spam"] ;
82 -> 83 ;
84 [label="mailer <= 1329.5\ngini = 0.2862\nsamples = 4468\nvalue = [3695, 773]\nclass = spam"] ;
83 -> 84 ;
85 [label="headers_count <= 17.5\ngini = 0.0377\nsamples = 521\nvalue = [10, 511]\nclass = ham"] ;
84 -> 85 ;
86 [label="spaces_over_len <= 0.2927\ngini = 0.0155\nsamples = 511\nvalue = [4, 507]\nclass = ham"] ;
85 -> 86 ;
87 [label="subject_length <= 4.5\ngini = 0.0117\nsamples = 510\nvalue = [3, 507]\nclass = ham"] ;
86 -> 87 ;
88 [label="gini = 0.2778\nsamples = 12\nvalue = [2, 10]\nclass = ham"] ;
87 -> 88 ;
89 [label="gini = 0.004\nsamples = 498\nvalue = [1, 497]\nclass = ham"] ;
87 -> 89 ;
90 [label="gini = 0.0\nsamples = 1\nvalue = [1, 0]\nclass = spam"] ;
86 -> 90 ;
91 [label="of <= 1.5\ngini = 0.48\nsamples = 10\nvalue = [6, 4]\nclass = spam"] ;
85 -> 91 ;
92 [label="gini = 0.0\nsamples = 6\nvalue = [6, 0]\nclass = spam"] ;
91 -> 92 ;
93 [label="gini = 0.0\nsamples = 4\nvalue = [0, 4]\nclass = ham"] ;
91 -> 93 ;
94 [label="headers_count <= 12.5\ngini = 0.1239\nsamples = 3947\nvalue = [3685, 262]\nclass = spam"] ;
84 -> 94 ;
95 [label="gini = 0.0\nsamples = 156\nvalue = [0, 156]\nclass = ham"] ;
94 -> 95 ;
96 [label="headers_count <= 14.5\ngini = 0.0544\nsamples = 3791\nvalue = [3685, 106]\nclass = spam"] ;
94 -> 96 ;
97 [label="has_non_english_chars <= 0.5\ngini = 0.0354\nsamples = 3716\nvalue = [3649, 67]\nclass = spam"] ;
96 -> 97 ;
98 [label="gini = 0.0323\nsamples = 3710\nvalue = [3649, 61]\nclass = spam"] ;
97 -> 98 ;
99 [label="gini = 0.0\nsamples = 6\nvalue = [0, 6]\nclass = ham"] ;
97 -> 99 ;
100 [label="raw_mail_len <= 86.0\ngini = 0.4992\nsamples = 75\nvalue = [36, 39]\nclass = ham"] ;
96 -> 100 ;
101 [label="gini = 0.0588\nsamples = 33\nvalue = [32, 1]\nclass = spam"] ;
100 -> 101 ;
102 [label="gini = 0.1723\nsamples = 42\nvalue = [4, 38]\nclass = ham"] ;
100 -> 102 ;
103 [label="content_transfer_encoding, <= 15.5\ngini = 0.4343\nsamples = 6179\nvalue = [1970, 4209]\nclass = ham"] ;
83 -> 103 ;
104 [label="headers_count <= 19.5\ngini = 0.2829\nsamples = 3484\nvalue = [594, 2890]\nclass = ham"] ;
103 -> 104 ;
105 [label="mailer <= 425.0\ngini = 0.1703\nsamples = 3012\nvalue = [283, 2729]\nclass = ham"] ;
104 -> 105 ;
106 [label="content_transfer_encoding, <= 7.0\ngini = 0.4595\nsamples = 453\nvalue = [162, 291]\nclass = ham"] ;
105 -> 106 ;
107 [label="gini = 0.4997\nsamples = 311\nvalue = [159, 152]\nclass = spam"] ;
106 -> 107 ;
108 [label="gini = 0.0414\nsamples = 142\nvalue = [3, 139]\nclass = ham"] ;
106 -> 108 ;
109 [label="headers_count <= 18.5\ngini = 0.0901\nsamples = 2559\nvalue = [121, 2438]\nclass = ham"] ;
105 -> 109 ;
110 [label="gini = 0.0673\nsamples = 2380\nvalue = [83, 2297]\nclass = ham"] ;
109 -> 110 ;
111 [label="gini = 0.3344\nsamples = 179\nvalue = [38, 141]\nclass = ham"] ;
109 -> 111 ;
112 [label="mailer <= 531.5\ngini = 0.4495\nsamples = 472\nvalue = [311, 161]\nclass = spam"] ;
104 -> 112 ;
113 [label="spaces_over_len <= 0.0534\ngini = 0.264\nsamples = 294\nvalue = [248, 46]\nclass = spam"] ;
112 -> 113 ;
114 [label="gini = 0.0\nsamples = 24\nvalue = [0, 24]\nclass = ham"] ;
113 -> 114 ;
115 [label="gini = 0.1497\nsamples = 270\nvalue = [248, 22]\nclass = spam"] ;
113 -> 115 ;
116 [label="headers_count <= 22.5\ngini = 0.4573\nsamples = 178\nvalue = [63, 115]\nclass = ham"] ;
112 -> 116 ;
117 [label="gini = 0.2698\nsamples = 112\nvalue = [18, 94]\nclass = ham"] ;
116 -> 117 ;
118 [label="gini = 0.4339\nsamples = 66\nvalue = [45, 21]\nclass = spam"] ;
116 -> 118 ;
119 [label="spaces_over_len <= 0.0916\ngini = 0.4998\nsamples = 2695\nvalue = [1376, 1319]\nclass = spam"] ;
103 -> 119 ;
120 [label="to <= 1.5\ngini = 0.1084\nsamples = 730\nvalue = [42, 688]\nclass = ham"] ;
119 -> 120 ;
121 [label="content_transfer_encoding, <= 17.0\ngini = 0.0638\nsamples = 697\nvalue = [23, 674]\nclass = ham"] ;
120 -> 121 ;
122 [label="gini = 0.0\nsamples = 5\nvalue = [5, 0]\nclass = spam"] ;
121 -> 122 ;
123 [label="gini = 0.0507\nsamples = 692\nvalue = [18, 674]\nclass = ham"] ;
121 -> 123 ;
124 [label="headers_count <= 15.5\ngini = 0.4885\nsamples = 33\nvalue = [19, 14]\nclass = spam"] ;
120 -> 124 ;
125 [label="gini = 0.375\nsamples = 12\nvalue = [3, 9]\nclass = ham"] ;
124 -> 125 ;
126 [label="gini = 0.3628\nsamples = 21\nvalue = [16, 5]\nclass = spam"] ;
124 -> 126 ;
127 [label="content_transfer_encoding, <= 16.5\ngini = 0.436\nsamples = 1965\nvalue = [1334, 631]\nclass = spam"] ;
119 -> 127 ;
128 [label="gini = 0.0\nsamples = 550\nvalue = [550, 0]\nclass = spam"] ;
127 -> 128 ;
129 [label="has_dollar <= 0.5\ngini = 0.4942\nsamples = 1415\nvalue = [784, 631]\nclass = spam"] ;
127 -> 129 ;
130 [label="gini = 0.4437\nsamples = 891\nvalue = [595, 296]\nclass = spam"] ;
129 -> 130 ;
131 [label="gini = 0.4612\nsamples = 524\nvalue = [189, 335]\nclass = ham"] ;
129 -> 131 ;
132 [label="has_link <= 0.5\ngini = 0.0559\nsamples = 18667\nvalue = [18130, 537]\nclass = spam"] ;
82 -> 132 ;
133 [label="spaces_over_len <= 0.0048\ngini = 0.015\nsamples = 16885\nvalue = [16757, 128]\nclass = spam"] ;
132 -> 133 ;
134 [label="uppercase_count <= 39.5\ngini = 0.4746\nsamples = 235\nvalue = [144, 91]\nclass = spam"] ;
133 -> 134 ;
135 [label="raw_mail_len <= 0.5\ngini = 0.04\nsamples = 147\nvalue = [144, 3]\nclass = spam"] ;
134 -> 135 ;
136 [label="gini = 0.0\nsamples = 2\nvalue = [0, 2]\nclass = ham"] ;
135 -> 136 ;
137 [label="headers_count <= 13.5\ngini = 0.0137\nsamples = 145\nvalue = [144, 1]\nclass = spam"] ;
135 -> 137 ;
138 [label="gini = 0.0\nsamples = 1\nvalue = [0, 1]\nclass = ham"] ;
137 -> 138 ;
139 [label="gini = 0.0\nsamples = 144\nvalue = [144, 0]\nclass = spam"] ;
137 -> 139 ;
140 [label="gini = 0.0\nsamples = 88\nvalue = [0, 88]\nclass = ham"] ;
134 -> 140 ;
141 [label="uppercase_count <= 2233.0\ngini = 0.0044\nsamples = 16650\nvalue = [16613, 37]\nclass = spam"] ;
133 -> 141 ;
142 [label="mailer <= 1295.0\ngini = 0.004\nsamples = 16641\nvalue = [16608, 33]\nclass = spam"] ;
141 -> 142 ;
143 [label="mailer <= 682.0\ngini = 0.0965\nsamples = 492\nvalue = [467, 25]\nclass = spam"] ;
142 -> 143 ;
144 [label="gini = 0.0085\nsamples = 466\nvalue = [464, 2]\nclass = spam"] ;
143 -> 144 ;
145 [label="gini = 0.2041\nsamples = 26\nvalue = [3, 23]\nclass = ham"] ;
143 -> 145 ;
146 [label="headers_count <= 12.5\ngini = 0.001\nsamples = 16149\nvalue = [16141, 8]\nclass = spam"] ;
142 -> 146 ;
147 [label="gini = 0.0783\nsamples = 49\nvalue = [47, 2]\nclass = spam"] ;
146 -> 147 ;
148 [label="gini = 0.0007\nsamples = 16100\nvalue = [16094, 6]\nclass = spam"] ;
146 -> 148 ;
149 [label="spell_error_count <= 33.0\ngini = 0.4938\nsamples = 9\nvalue = [5, 4]\nclass = spam"] ;
141 -> 149 ;
150 [label="gini = 0.0\nsamples = 4\nvalue = [0, 4]\nclass = ham"] ;
149 -> 150 ;
151 [label="gini = 0.0\nsamples = 5\nvalue = [5, 0]\nclass = spam"] ;
149 -> 151 ;
152 [label="content_transfer_encoding, <= 12.0\ngini = 0.3537\nsamples = 1782\nvalue = [1373, 409]\nclass = spam"] ;
132 -> 152 ;
153 [label="uppercase_count <= 0.5\ngini = 0.4998\nsamples = 753\nvalue = [369, 384]\nclass = ham"] ;
152 -> 153 ;
154 [label="mailer <= 1295.0\ngini = 0.0176\nsamples = 338\nvalue = [335, 3]\nclass = spam"] ;
153 -> 154 ;
155 [label="gini = 0.0\nsamples = 2\nvalue = [0, 2]\nclass = ham"] ;
154 -> 155 ;
156 [label="headers_count <= 17.5\ngini = 0.0059\nsamples = 336\nvalue = [335, 1]\nclass = spam"] ;
154 -> 156 ;
157 [label="gini = 0.0\nsamples = 335\nvalue = [335, 0]\nclass = spam"] ;
156 -> 157 ;
158 [label="gini = 0.0\nsamples = 1\nvalue = [0, 1]\nclass = ham"] ;
156 -> 158 ;
159 [label="raw_mail_len <= 3706.5\ngini = 0.1504\nsamples = 415\nvalue = [34, 381]\nclass = ham"] ;
153 -> 159 ;
160 [label="mailer <= 615.0\ngini = 0.1086\nsamples = 399\nvalue = [23, 376]\nclass = ham"] ;
159 -> 160 ;
161 [label="gini = 0.3034\nsamples = 118\nvalue = [22, 96]\nclass = ham"] ;
160 -> 161 ;
162 [label="gini = 0.0071\nsamples = 281\nvalue = [1, 280]\nclass = ham"] ;
160 -> 162 ;
163 [label="mailer <= 647.5\ngini = 0.4297\nsamples = 16\nvalue = [11, 5]\nclass = spam"] ;
159 -> 163 ;
164 [label="gini = 0.0\nsamples = 10\nvalue = [10, 0]\nclass = spam"] ;
163 -> 164 ;
165 [label="gini = 0.2778\nsamples = 6\nvalue = [1, 5]\nclass = ham"] ;
163 -> 165 ;
166 [label="mailer <= 153.5\ngini = 0.0474\nsamples = 1029\nvalue = [1004, 25]\nclass = spam"] ;
152 -> 166 ;
167 [label="gini = 0.0\nsamples = 3\nvalue = [0, 3]\nclass = ham"] ;
166 -> 167 ;
168 [label="content_transfer_encoding, <= 17.0\ngini = 0.042\nsamples = 1026\nvalue = [1004, 22]\nclass = spam"] ;
166 -> 168 ;
169 [label="gini = 0.0\nsamples = 697\nvalue = [697, 0]\nclass = spam"] ;
168 -> 169 ;
170 [label="raw_mail_len <= 476.5\ngini = 0.1248\nsamples = 329\nvalue = [307, 22]\nclass = spam"] ;
168 -> 170 ;
171 [label="gini = 0.4602\nsamples = 39\nvalue = [25, 14]\nclass = spam"] ;
170 -> 171 ;
172 [label="gini = 0.0537\nsamples = 290\nvalue = [282, 8]\nclass = spam"] ;
170 -> 172 ;
}