digraph Tree {
node [shape=box] ;
0 [label="content_type <= 12.5\ngini = 0.5\nsamples = 54000\nvalue = [27000, 27000]\nclass = spam"] ;
1 [label="has_html <= 0.5\ngini = 0.2259\nsamples = 24686\nvalue = [3205, 21481]\nclass = ham"] ;
0 -> 1 [labeldistance=2.5, labelangle=45, headlabel="True"] ;
2 [label="raw_mail_len <= 18485.5\ngini = 0.4588\nsamples = 8513\nvalue = [3034, 5479]\nclass = ham"] ;
1 -> 2 ;
3 [label="headers_count <= 17.5\ngini = 0.4149\nsamples = 7559\nvalue = [2220, 5339]\nclass = ham"] ;
2 -> 3 ;
4 [label="the <= 0.5\ngini = 0.3562\nsamples = 6464\nvalue = [1499, 4965]\nclass = ham"] ;
3 -> 4 ;
5 [label="gini = 0.1823\nsamples = 3234\nvalue = [328, 2906]\nclass = ham"] ;
4 -> 5 ;
6 [label="gini = 0.4622\nsamples = 3230\nvalue = [1171, 2059]\nclass = ham"] ;
4 -> 6 ;
7 [label="has_link <= 0.5\ngini = 0.4498\nsamples = 1095\nvalue = [721, 374]\nclass = spam"] ;
3 -> 7 ;
8 [label="gini = 0.1904\nsamples = 563\nvalue = [503, 60]\nclass = spam"] ;
7 -> 8 ;
9 [label="gini = 0.4837\nsamples = 532\nvalue = [218, 314]\nclass = ham"] ;
7 -> 9 ;
10 [label="uppercase_count <= 739.0\ngini = 0.2504\nsamples = 954\nvalue = [814, 140]\nclass = spam"] ;
2 -> 10 ;
11 [label="subject_length <= 16.0\ngini = 0.1014\nsamples = 56\nvalue = [3, 53]\nclass = ham"] ;
10 -> 11 ;
12 [label="gini = 0.4444\nsamples = 3\nvalue = [2, 1]\nclass = spam"] ;
11 -> 12 ;
13 [label="gini = 0.037\nsamples = 53\nvalue = [1, 52]\nclass = ham"] ;
11 -> 13 ;
14 [label="content_type <= 6.5\ngini = 0.175\nsamples = 898\nvalue = [811, 87]\nclass = spam"] ;
10 -> 14 ;
15 [label="gini = 0.4918\nsamples = 156\nvalue = [88, 68]\nclass = spam"] ;
14 -> 15 ;
16 [label="gini = 0.0499\nsamples = 742\nvalue = [723, 19]\nclass = spam"] ;
14 -> 16 ;
17 [label="spaces_over_len <= 0.8015\ngini = 0.0209\nsamples = 16173\nvalue = [171, 16002]\nclass = ham"] ;
1 -> 17 ;
18 [label="a <= 19.5\ngini = 0.0182\nsamples = 16150\nvalue = [148, 16002]\nclass = ham"] ;
17 -> 18 ;
19 [label="headers_count <= 21.5\ngini = 0.0131\nsamples = 15875\nvalue = [105, 15770]\nclass = ham"] ;
18 -> 19 ;
20 [label="gini = 0.0116\nsamples = 15829\nvalue = [92, 15737]\nclass = ham"] ;
19 -> 20 ;
21 [label="gini = 0.4055\nsamples = 46\nvalue = [13, 33]\nclass = ham"] ;
19 -> 21 ;
22 [label="uppercase_count <= 698.5\ngini = 0.2638\nsamples = 275\nvalue = [43, 232]\nclass = ham"] ;
18 -> 22 ;
23 [label="gini = 0.0\nsamples = 206\nvalue = [0, 206]\nclass = ham"] ;
22 -> 23 ;
24 [label="gini = 0.4696\nsamples = 69\nvalue = [43, 26]\nclass = spam"] ;
22 -> 24 ;
25 [label="gini = 0.0\nsamples = 23\nvalue = [23, 0]\nclass = spam"] ;
17 -> 25 ;
26 [label="recipient_count <= 1.5\ngini = 0.3057\nsamples = 29314\nvalue = [23795, 5519]\nclass = spam"] ;
0 -> 26 [labeldistance=2.5, labelangle=-45, headlabel="False"] ;
27 [label="uppercase_count <= 0.5\ngini = 0.4979\nsamples = 10647\nvalue = [5665, 4982]\nclass = spam"] ;
26 -> 27 ;
28 [label="mailer <= 1329.5\ngini = 0.2862\nsamples = 4468\nvalue = [3695, 773]\nclass = spam"] ;
27 -> 28 ;
29 [label="headers_count <= 17.5\ngini = 0.0377\nsamples = 521\nvalue = [10, 511]\nclass = ham"] ;
28 -> 29 ;
30 [label="gini = 0.0155\nsamples = 511\nvalue = [4, 507]\nclass = ham"] ;
29 -> 30 ;
31 [label="gini = 0.48\nsamples = 10\nvalue = [6, 4]\nclass = spam"] ;
29 -> 31 ;
32 [label="headers_count <= 12.5\ngini = 0.1239\nsamples = 3947\nvalue = [3685, 262]\nclass = spam"] ;
28 -> 32 ;
33 [label="gini = 0.0\nsamples = 156\nvalue = [0, 156]\nclass = ham"] ;
32 -> 33 ;
34 [label="gini = 0.0544\nsamples = 3791\nvalue = [3685, 106]\nclass = spam"] ;
32 -> 34 ;
35 [label="content_transfer_encoding, <= 15.5\ngini = 0.4343\nsamples = 6179\nvalue = [1970, 4209]\nclass = ham"] ;
27 -> 35 ;
36 [label="headers_count <= 19.5\ngini = 0.2829\nsamples = 3484\nvalue = [594, 2890]\nclass = ham"] ;
35 -> 36 ;
37 [label="gini = 0.1703\nsamples = 3012\nvalue = [283, 2729]\nclass = ham"] ;
36 -> 37 ;
38 [label="gini = 0.4495\nsamples = 472\nvalue = [311, 161]\nclass = spam"] ;
36 -> 38 ;
39 [label="spaces_over_len <= 0.0916\ngini = 0.4998\nsamples = 2695\nvalue = [1376, 1319]\nclass = spam"] ;
35 -> 39 ;
40 [label="gini = 0.1084\nsamples = 730\nvalue = [42, 688]\nclass = ham"] ;
39 -> 40 ;
41 [label="gini = 0.436\nsamples = 1965\nvalue = [1334, 631]\nclass = spam"] ;
39 -> 41 ;
42 [label="has_link <= 0.5\ngini = 0.0559\nsamples = 18667\nvalue = [18130, 537]\nclass = spam"] ;
26 -> 42 ;
43 [label="raw_body_count_spaces <= 0.5\ngini = 0.015\nsamples = 16885\nvalue = [16757, 128]\nclass = spam"] ;
42 -> 43 ;
44 [label="raw_mail_len <= 107.0\ngini = 0.4746\nsamples = 235\nvalue = [144, 91]\nclass = spam"] ;
43 -> 44 ;
45 [label="gini = 0.04\nsamples = 147\nvalue = [144, 3]\nclass = spam"] ;
44 -> 45 ;
46 [label="gini = 0.0\nsamples = 88\nvalue = [0, 88]\nclass = ham"] ;
44 -> 46 ;
47 [label="uppercase_count <= 2233.0\ngini = 0.0044\nsamples = 16650\nvalue = [16613, 37]\nclass = spam"] ;
43 -> 47 ;
48 [label="gini = 0.004\nsamples = 16641\nvalue = [16608, 33]\nclass = spam"] ;
47 -> 48 ;
49 [label="gini = 0.4938\nsamples = 9\nvalue = [5, 4]\nclass = spam"] ;
47 -> 49 ;
50 [label="content_transfer_encoding, <= 12.0\ngini = 0.3537\nsamples = 1782\nvalue = [1373, 409]\nclass = spam"] ;
42 -> 50 ;
51 [label="uppercase_count <= 0.5\ngini = 0.4998\nsamples = 753\nvalue = [369, 384]\nclass = ham"] ;
50 -> 51 ;
52 [label="gini = 0.0176\nsamples = 338\nvalue = [335, 3]\nclass = spam"] ;
51 -> 52 ;
53 [label="gini = 0.1504\nsamples = 415\nvalue = [34, 381]\nclass = ham"] ;
51 -> 53 ;
54 [label="mailer <= 153.5\ngini = 0.0474\nsamples = 1029\nvalue = [1004, 25]\nclass = spam"] ;
50 -> 54 ;
55 [label="gini = 0.0\nsamples = 3\nvalue = [0, 3]\nclass = ham"] ;
54 -> 55 ;
56 [label="gini = 0.042\nsamples = 1026\nvalue = [1004, 22]\nclass = spam"] ;
54 -> 56 ;
}