digraph Tree {
node [shape=box] ;
0 [label="content_type <= 12.5\ngini = 0.5\nsamples = 54000\nvalue = [27000, 27000]\nclass = spam"] ;
1 [label="has_html <= 0.5\ngini = 0.2259\nsamples = 24686\nvalue = [3205, 21481]\nclass = ham"] ;
0 -> 1 [labeldistance=2.5, labelangle=45, headlabel="True"] ;
2 [label="raw_mail_len <= 18485.5\ngini = 0.4588\nsamples = 8513\nvalue = [3034, 5479]\nclass = ham"] ;
1 -> 2 ;
3 [label="headers_count <= 17.5\ngini = 0.4149\nsamples = 7559\nvalue = [2220, 5339]\nclass = ham"] ;
2 -> 3 ;
4 [label="the <= 0.5\ngini = 0.3562\nsamples = 6464\nvalue = [1499, 4965]\nclass = ham"] ;
3 -> 4 ;
5 [label="raw_mail_len <= 240.5\ngini = 0.1823\nsamples = 3234\nvalue = [328, 2906]\nclass = ham"] ;
4 -> 5 ;
6 [label="raw_mail_len <= 233.5\ngini = 0.4871\nsamples = 460\nvalue = [193, 267]\nclass = ham"] ;
5 -> 6 ;
7 [label="spaces_over_len <= 0.1314\ngini = 0.3692\nsamples = 348\nvalue = [85, 263]\nclass = ham"] ;
6 -> 7 ;
8 [label="recipient_count <= 6.5\ngini = 0.2381\nsamples = 304\nvalue = [42, 262]\nclass = ham"] ;
7 -> 8 ;
9 [label="raw_mail_len <= 227.0\ngini = 0.2\nsamples = 284\nvalue = [32, 252]\nclass = ham"] ;
8 -> 9 ;
10 [label="parts_count <= 1.5\ngini = 0.168\nsamples = 270\nvalue = [25, 245]\nclass = ham"] ;
9 -> 10 ;
11 [label="mailer <= 505.5\ngini = 0.2748\nsamples = 152\nvalue = [25, 127]\nclass = ham"] ;
10 -> 11 ;
12 [label="headers_count <= 14.5\ngini = 0.4688\nsamples = 24\nvalue = [15, 9]\nclass = spam"] ;
11 -> 12 ;
13 [label="has_link <= 0.5\ngini = 0.18\nsamples = 10\nvalue = [1, 9]\nclass = ham"] ;
12 -> 13 ;
14 [label="gini = 0.0\nsamples = 1\nvalue = [1, 0]\nclass = spam"] ;
13 -> 14 ;
15 [label="gini = 0.0\nsamples = 9\nvalue = [0, 9]\nclass = ham"] ;
13 -> 15 ;
16 [label="gini = 0.0\nsamples = 14\nvalue = [14, 0]\nclass = spam"] ;
12 -> 16 ;
17 [label="of <= 0.5\ngini = 0.144\nsamples = 128\nvalue = [10, 118]\nclass = ham"] ;
11 -> 17 ;
18 [label="headers_count <= 11.5\ngini = 0.1198\nsamples = 125\nvalue = [8, 117]\nclass = ham"] ;
17 -> 18 ;
19 [label="uppercase_count <= 10.5\ngini = 0.029\nsamples = 68\nvalue = [1, 67]\nclass = ham"] ;
18 -> 19 ;
20 [label="gini = 0.0\nsamples = 67\nvalue = [0, 67]\nclass = ham"] ;
19 -> 20 ;
21 [label="gini = 0.0\nsamples = 1\nvalue = [1, 0]\nclass = spam"] ;
19 -> 21 ;
22 [label="recipient_count <= 0.5\ngini = 0.2155\nsamples = 57\nvalue = [7, 50]\nclass = ham"] ;
18 -> 22 ;
23 [label="gini = 0.0\nsamples = 2\nvalue = [2, 0]\nclass = spam"] ;
22 -> 23 ;
24 [label="spell_error_count <= 0.5\ngini = 0.1653\nsamples = 55\nvalue = [5, 50]\nclass = ham"] ;
22 -> 24 ;
25 [label="raw_mail_len <= 1.5\ngini = 0.3512\nsamples = 22\nvalue = [5, 17]\nclass = ham"] ;
24 -> 25 ;
26 [label="gini = 0.0\nsamples = 15\nvalue = [0, 15]\nclass = ham"] ;
25 -> 26 ;
27 [label="raw_body_count_spaces <= 2.0\ngini = 0.4082\nsamples = 7\nvalue = [5, 2]\nclass = spam"] ;
25 -> 27 ;
28 [label="gini = 0.0\nsamples = 5\nvalue = [5, 0]\nclass = spam"] ;
27 -> 28 ;
29 [label="gini = 0.0\nsamples = 2\nvalue = [0, 2]\nclass = ham"] ;
27 -> 29 ;
30 [label="gini = 0.0\nsamples = 33\nvalue = [0, 33]\nclass = ham"] ;
24 -> 30 ;
31 [label="uppercase_count <= 5.0\ngini = 0.4444\nsamples = 3\nvalue = [2, 1]\nclass = spam"] ;
17 -> 31 ;
32 [label="gini = 0.0\nsamples = 1\nvalue = [0, 1]\nclass = ham"] ;
31 -> 32 ;
33 [label="gini = 0.0\nsamples = 2\nvalue = [2, 0]\nclass = spam"] ;
31 -> 33 ;
34 [label="gini = 0.0\nsamples = 118\nvalue = [0, 118]\nclass = ham"] ;
10 -> 34 ;
35 [label="has_link <= 0.5\ngini = 0.5\nsamples = 14\nvalue = [7, 7]\nclass = spam"] ;
9 -> 35 ;
36 [label="gini = 0.0\nsamples = 7\nvalue = [0, 7]\nclass = ham"] ;
35 -> 36 ;
37 [label="gini = 0.0\nsamples = 7\nvalue = [7, 0]\nclass = spam"] ;
35 -> 37 ;
38 [label="mailer <= 412.5\ngini = 0.5\nsamples = 20\nvalue = [10, 10]\nclass = spam"] ;
8 -> 38 ;
39 [label="has_cc <= 0.5\ngini = 0.1653\nsamples = 11\nvalue = [10, 1]\nclass = spam"] ;
38 -> 39 ;
40 [label="gini = 0.0\nsamples = 10\nvalue = [10, 0]\nclass = spam"] ;
39 -> 40 ;
41 [label="gini = 0.0\nsamples = 1\nvalue = [0, 1]\nclass = ham"] ;
39 -> 41 ;
42 [label="gini = 0.0\nsamples = 9\nvalue = [0, 9]\nclass = ham"] ;
38 -> 42 ;
43 [label="content_type <= 9.5\ngini = 0.0444\nsamples = 44\nvalue = [43, 1]\nclass = spam"] ;
7 -> 43 ;
44 [label="gini = 0.0\nsamples = 42\nvalue = [42, 0]\nclass = spam"] ;
43 -> 44 ;
45 [label="raw_body_count_spaces <= 5.0\ngini = 0.5\nsamples = 2\nvalue = [1, 1]\nclass = spam"] ;
43 -> 45 ;
46 [label="gini = 0.0\nsamples = 1\nvalue = [1, 0]\nclass = spam"] ;
45 -> 46 ;
47 [label="gini = 0.0\nsamples = 1\nvalue = [0, 1]\nclass = ham"] ;
45 -> 47 ;
48 [label="spell_error_count <= 7.5\ngini = 0.0689\nsamples = 112\nvalue = [108, 4]\nclass = spam"] ;
6 -> 48 ;
49 [label="subject_length <= 8.0\ngini = 0.0183\nsamples = 108\nvalue = [107, 1]\nclass = spam"] ;
48 -> 49 ;
50 [label="gini = 0.0\nsamples = 1\nvalue = [0, 1]\nclass = ham"] ;
49 -> 50 ;
51 [label="gini = 0.0\nsamples = 107\nvalue = [107, 0]\nclass = spam"] ;
49 -> 51 ;
52 [label="raw_body_count_spaces <= 16.0\ngini = 0.375\nsamples = 4\nvalue = [1, 3]\nclass = ham"] ;
48 -> 52 ;
53 [label="gini = 0.0\nsamples = 1\nvalue = [1, 0]\nclass = spam"] ;
52 -> 53 ;
54 [label="gini = 0.0\nsamples = 3\nvalue = [0, 3]\nclass = ham"] ;
52 -> 54 ;
55 [label="parts_count <= 2.5\ngini = 0.0926\nsamples = 2774\nvalue = [135, 2639]\nclass = ham"] ;
5 -> 55 ;
56 [label="recipient_count <= 25.0\ngini = 0.0278\nsamples = 2338\nvalue = [33, 2305]\nclass = ham"] ;
55 -> 56 ;
57 [label="spaces_over_len <= 0.1218\ngini = 0.0254\nsamples = 2333\nvalue = [30, 2303]\nclass = ham"] ;
56 -> 57 ;
58 [label="headers_count <= 1.5\ngini = 0.0085\nsamples = 2102\nvalue = [9, 2093]\nclass = ham"] ;
57 -> 58 ;
59 [label="gini = 0.0\nsamples = 1\nvalue = [1, 0]\nclass = spam"] ;
58 -> 59 ;
60 [label="to <= 4.5\ngini = 0.0076\nsamples = 2101\nvalue = [8, 2093]\nclass = ham"] ;
58 -> 60 ;
61 [label="spell_error_count <= 7.5\ngini = 0.0067\nsamples = 2096\nvalue = [7, 2089]\nclass = ham"] ;
60 -> 61 ;
62 [label="raw_mail_len <= 799.5\ngini = 0.0465\nsamples = 168\nvalue = [4, 164]\nclass = ham"] ;
61 -> 62 ;
63 [label="has_link <= 0.5\ngini = 0.0239\nsamples = 165\nvalue = [2, 163]\nclass = ham"] ;
62 -> 63 ;
64 [label="raw_body_count_spaces <= 38.5\ngini = 0.5\nsamples = 4\nvalue = [2, 2]\nclass = spam"] ;
63 -> 64 ;
65 [label="gini = 0.0\nsamples = 2\nvalue = [0, 2]\nclass = ham"] ;
64 -> 65 ;
66 [label="gini = 0.0\nsamples = 2\nvalue = [2, 0]\nclass = spam"] ;
64 -> 66 ;
67 [label="gini = 0.0\nsamples = 161\nvalue = [0, 161]\nclass = ham"] ;
63 -> 67 ;
68 [label="headers_count <= 13.5\ngini = 0.4444\nsamples = 3\nvalue = [2, 1]\nclass = spam"] ;
62 -> 68 ;
69 [label="gini = 0.0\nsamples = 1\nvalue = [0, 1]\nclass = ham"] ;
68 -> 69 ;
70 [label="gini = 0.0\nsamples = 2\nvalue = [2, 0]\nclass = spam"] ;
68 -> 70 ;
71 [label="for <= 1.5\ngini = 0.0031\nsamples = 1928\nvalue = [3, 1925]\nclass = ham"] ;
61 -> 71 ;
72 [label="subject_length <= 15.5\ngini = 0.0021\nsamples = 1886\nvalue = [2, 1884]\nclass = ham"] ;
71 -> 72 ;
73 [label="uppercase_count <= 1829.5\ngini = 0.0213\nsamples = 93\nvalue = [1, 92]\nclass = ham"] ;
72 -> 73 ;
74 [label="gini = 0.0\nsamples = 85\nvalue = [0, 85]\nclass = ham"] ;
73 -> 74 ;
75 [label="spell_error_count <= 556.5\ngini = 0.2188\nsamples = 8\nvalue = [1, 7]\nclass = ham"] ;
73 -> 75 ;
76 [label="gini = 0.0\nsamples = 1\nvalue = [1, 0]\nclass = spam"] ;
75 -> 76 ;
77 [label="gini = 0.0\nsamples = 7\nvalue = [0, 7]\nclass = ham"] ;
75 -> 77 ;
78 [label="recipient_count <= 1.5\ngini = 0.0011\nsamples = 1793\nvalue = [1, 1792]\nclass = ham"] ;
72 -> 78 ;
79 [label="gini = 0.0\nsamples = 1549\nvalue = [0, 1549]\nclass = ham"] ;
78 -> 79 ;
80 [label="is_mulipart <= 0.5\ngini = 0.0082\nsamples = 244\nvalue = [1, 243]\nclass = ham"] ;
78 -> 80 ;
81 [label="gini = 0.0\nsamples = 236\nvalue = [0, 236]\nclass = ham"] ;
80 -> 81 ;
82 [label="has_link <= 0.5\ngini = 0.2188\nsamples = 8\nvalue = [1, 7]\nclass = ham"] ;
80 -> 82 ;
83 [label="gini = 0.0\nsamples = 1\nvalue = [1, 0]\nclass = spam"] ;
82 -> 83 ;
84 [label="gini = 0.0\nsamples = 7\nvalue = [0, 7]\nclass = ham"] ;
82 -> 84 ;
85 [label="has_link <= 0.5\ngini = 0.0465\nsamples = 42\nvalue = [1, 41]\nclass = ham"] ;
71 -> 85 ;
86 [label="content_transfer_encoding, <= 19.5\ngini = 0.5\nsamples = 2\nvalue = [1, 1]\nclass = spam"] ;
85 -> 86 ;
87 [label="gini = 0.0\nsamples = 1\nvalue = [0, 1]\nclass = ham"] ;
86 -> 87 ;
88 [label="gini = 0.0\nsamples = 1\nvalue = [1, 0]\nclass = spam"] ;
86 -> 88 ;
89 [label="gini = 0.0\nsamples = 40\nvalue = [0, 40]\nclass = ham"] ;
85 -> 89 ;
90 [label="spaces_over_len <= 0.1084\ngini = 0.32\nsamples = 5\nvalue = [1, 4]\nclass = ham"] ;
60 -> 90 ;
91 [label="gini = 0.0\nsamples = 4\nvalue = [0, 4]\nclass = ham"] ;
90 -> 91 ;
92 [label="gini = 0.0\nsamples = 1\nvalue = [1, 0]\nclass = spam"] ;
90 -> 92 ;
93 [label="has_link <= 0.5\ngini = 0.1653\nsamples = 231\nvalue = [21, 210]\nclass = ham"] ;
57 -> 93 ;
94 [label="content_type <= 7.5\ngini = 0.4996\nsamples = 37\nvalue = [18, 19]\nclass = ham"] ;
93 -> 94 ;
95 [label="to <= 3.5\ngini = 0.1884\nsamples = 19\nvalue = [17, 2]\nclass = spam"] ;
94 -> 95 ;
96 [label="gini = 0.0\nsamples = 16\nvalue = [16, 0]\nclass = spam"] ;
95 -> 96 ;
97 [label="for <= 0.5\ngini = 0.4444\nsamples = 3\nvalue = [1, 2]\nclass = ham"] ;
95 -> 97 ;
98 [label="gini = 0.0\nsamples = 1\nvalue = [1, 0]\nclass = spam"] ;
97 -> 98 ;
99 [label="gini = 0.0\nsamples = 2\nvalue = [0, 2]\nclass = ham"] ;
97 -> 99 ;
100 [label="spell_error_count <= 7.5\ngini = 0.1049\nsamples = 18\nvalue = [1, 17]\nclass = ham"] ;
94 -> 100 ;
101 [label="gini = 0.0\nsamples = 1\nvalue = [1, 0]\nclass = spam"] ;
100 -> 101 ;
102 [label="gini = 0.0\nsamples = 17\nvalue = [0, 17]\nclass = ham"] ;
100 -> 102 ;
103 [label="spaces_over_len <= 0.1221\ngini = 0.0304\nsamples = 194\nvalue = [3, 191]\nclass = ham"] ;
93 -> 103 ;
104 [label="gini = 0.0\nsamples = 1\nvalue = [1, 0]\nclass = spam"] ;
103 -> 104 ;
105 [label="of <= 2.5\ngini = 0.0205\nsamples = 193\nvalue = [2, 191]\nclass = ham"] ;
103 -> 105 ;
106 [label="for <= 1.5\ngini = 0.0106\nsamples = 187\nvalue = [1, 186]\nclass = ham"] ;
105 -> 106 ;
107 [label="gini = 0.0\nsamples = 176\nvalue = [0, 176]\nclass = ham"] ;
106 -> 107 ;
108 [label="in <= 1.5\ngini = 0.1653\nsamples = 11\nvalue = [1, 10]\nclass = ham"] ;
106 -> 108 ;
109 [label="gini = 0.0\nsamples = 10\nvalue = [0, 10]\nclass = ham"] ;
108 -> 109 ;
110 [label="gini = 0.0\nsamples = 1\nvalue = [1, 0]\nclass = spam"] ;
108 -> 110 ;
111 [label="subject_length <= 28.5\ngini = 0.2778\nsamples = 6\nvalue = [1, 5]\nclass = ham"] ;
105 -> 111 ;
112 [label="gini = 0.0\nsamples = 1\nvalue = [1, 0]\nclass = spam"] ;
111 -> 112 ;
113 [label="gini = 0.0\nsamples = 5\nvalue = [0, 5]\nclass = ham"] ;
111 -> 113 ;
114 [label="content_transfer_encoding, <= 18.5\ngini = 0.48\nsamples = 5\nvalue = [3, 2]\nclass = spam"] ;
56 -> 114 ;
115 [label="gini = 0.0\nsamples = 2\nvalue = [0, 2]\nclass = ham"] ;
114 -> 115 ;
116 [label="gini = 0.0\nsamples = 3\nvalue = [3, 0]\nclass = spam"] ;
114 -> 116 ;
117 [label="spell_error_count <= 59.5\ngini = 0.3584\nsamples = 436\nvalue = [102, 334]\nclass = ham"] ;
55 -> 117 ;
118 [label="uppercase_count <= 22.5\ngini = 0.4901\nsamples = 156\nvalue = [89, 67]\nclass = spam"] ;
117 -> 118 ;
119 [label="raw_body_count_spaces <= 5.0\ngini = 0.054\nsamples = 36\nvalue = [1, 35]\nclass = ham"] ;
118 -> 119 ;
120 [label="gini = 0.0\nsamples = 1\nvalue = [1, 0]\nclass = spam"] ;
119 -> 120 ;
121 [label="gini = 0.0\nsamples = 35\nvalue = [0, 35]\nclass = ham"] ;
119 -> 121 ;
122 [label="has_link <= 0.5\ngini = 0.3911\nsamples = 120\nvalue = [88, 32]\nclass = spam"] ;
118 -> 122 ;
123 [label="mailer <= 122.0\ngini = 0.148\nsamples = 87\nvalue = [80, 7]\nclass = spam"] ;
122 -> 123 ;
124 [label="gini = 0.0\nsamples = 2\nvalue = [0, 2]\nclass = ham"] ;
123 -> 124 ;
125 [label="in <= 4.0\ngini = 0.1107\nsamples = 85\nvalue = [80, 5]\nclass = spam"] ;
123 -> 125 ;
126 [label="spaces_over_len <= 0.0503\ngini = 0.0907\nsamples = 84\nvalue = [80, 4]\nclass = spam"] ;
125 -> 126 ;
127 [label="subject_length <= 2.5\ngini = 0.0308\nsamples = 64\nvalue = [63, 1]\nclass = spam"] ;
126 -> 127 ;
128 [label="spell_error_count <= 8.5\ngini = 0.2778\nsamples = 6\nvalue = [5, 1]\nclass = spam"] ;
127 -> 128 ;
129 [label="uppercase_count <= 45.0\ngini = 0.5\nsamples = 2\nvalue = [1, 1]\nclass = spam"] ;
128 -> 129 ;
130 [label="gini = 0.0\nsamples = 1\nvalue = [1, 0]\nclass = spam"] ;
129 -> 130 ;
131 [label="gini = 0.0\nsamples = 1\nvalue = [0, 1]\nclass = ham"] ;
129 -> 131 ;
132 [label="gini = 0.0\nsamples = 4\nvalue = [4, 0]\nclass = spam"] ;
128 -> 132 ;
133 [label="gini = 0.0\nsamples = 58\nvalue = [58, 0]\nclass = spam"] ;
127 -> 133 ;
134 [label="raw_body_count_spaces <= 24.0\ngini = 0.255\nsamples = 20\nvalue = [17, 3]\nclass = spam"] ;
126 -> 134 ;
135 [label="gini = 0.0\nsamples = 2\nvalue = [0, 2]\nclass = ham"] ;
134 -> 135 ;
136 [label="has_cc <= 0.5\ngini = 0.1049\nsamples = 18\nvalue = [17, 1]\nclass = spam"] ;
134 -> 136 ;
137 [label="gini = 0.0\nsamples = 17\nvalue = [17, 0]\nclass = spam"] ;
136 -> 137 ;
138 [label="gini = 0.0\nsamples = 1\nvalue = [0, 1]\nclass = ham"] ;
136 -> 138 ;
139 [label="gini = 0.0\nsamples = 1\nvalue = [0, 1]\nclass = ham"] ;
125 -> 139 ;
140 [label="raw_body_count_spaces <= 118.5\ngini = 0.3673\nsamples = 33\nvalue = [8, 25]\nclass = ham"] ;
122 -> 140 ;
141 [label="in <= 0.5\ngini = 0.1913\nsamples = 28\nvalue = [3, 25]\nclass = ham"] ;
140 -> 141 ;
142 [label="has_cc <= 0.5\ngini = 0.375\nsamples = 4\nvalue = [3, 1]\nclass = spam"] ;
141 -> 142 ;
143 [label="gini = 0.0\nsamples = 3\nvalue = [3, 0]\nclass = spam"] ;
142 -> 143 ;
144 [label="gini = 0.0\nsamples = 1\nvalue = [0, 1]\nclass = ham"] ;
142 -> 144 ;
145 [label="gini = 0.0\nsamples = 24\nvalue = [0, 24]\nclass = ham"] ;
141 -> 145 ;
146 [label="gini = 0.0\nsamples = 5\nvalue = [5, 0]\nclass = spam"] ;
140 -> 146 ;
147 [label="recipient_count <= 17.5\ngini = 0.0885\nsamples = 280\nvalue = [13, 267]\nclass = ham"] ;
117 -> 147 ;
148 [label="uppercase_count <= 7416.0\ngini = 0.0633\nsamples = 275\nvalue = [9, 266]\nclass = ham"] ;
147 -> 148 ;
149 [label="raw_body_count_spaces <= 5.5\ngini = 0.0431\nsamples = 272\nvalue = [6, 266]\nclass = ham"] ;
148 -> 149 ;
150 [label="gini = 0.0\nsamples = 3\nvalue = [3, 0]\nclass = spam"] ;
149 -> 150 ;
151 [label="content_type <= 8.5\ngini = 0.0221\nsamples = 269\nvalue = [3, 266]\nclass = ham"] ;
149 -> 151 ;
152 [label="spell_error_count <= 71.5\ngini = 0.0076\nsamples = 262\nvalue = [1, 261]\nclass = ham"] ;
151 -> 152 ;
153 [label="raw_mail_len <= 2447.5\ngini = 0.1975\nsamples = 9\nvalue = [1, 8]\nclass = ham"] ;
152 -> 153 ;
154 [label="gini = 0.0\nsamples = 8\nvalue = [0, 8]\nclass = ham"] ;
153 -> 154 ;
155 [label="gini = 0.0\nsamples = 1\nvalue = [1, 0]\nclass = spam"] ;
153 -> 155 ;
156 [label="gini = 0.0\nsamples = 253\nvalue = [0, 253]\nclass = ham"] ;
152 -> 156 ;
157 [label="subject_length <= 46.5\ngini = 0.4082\nsamples = 7\nvalue = [2, 5]\nclass = ham"] ;
151 -> 157 ;
158 [label="gini = 0.0\nsamples = 2\nvalue = [2, 0]\nclass = spam"] ;
157 -> 158 ;
159 [label="gini = 0.0\nsamples = 5\nvalue = [0, 5]\nclass = ham"] ;
157 -> 159 ;
160 [label="gini = 0.0\nsamples = 3\nvalue = [3, 0]\nclass = spam"] ;
148 -> 160 ;
161 [label="has_attachment <= 0.5\ngini = 0.32\nsamples = 5\nvalue = [4, 1]\nclass = spam"] ;
147 -> 161 ;
162 [label="gini = 0.0\nsamples = 4\nvalue = [4, 0]\nclass = spam"] ;
161 -> 162 ;
163 [label="gini = 0.0\nsamples = 1\nvalue = [0, 1]\nclass = ham"] ;
161 -> 163 ;
164 [label="uppercase_count <= 0.5\ngini = 0.4622\nsamples = 3230\nvalue = [1171, 2059]\nclass = ham"] ;
4 -> 164 ;
165 [label="gini = 0.0\nsamples = 639\nvalue = [0, 639]\nclass = ham"] ;
164 -> 165 ;
166 [label="has_link <= 0.5\ngini = 0.4954\nsamples = 2591\nvalue = [1171, 1420]\nclass = ham"] ;
164 -> 166 ;
167 [label="headers_count <= 14.5\ngini = 0.3999\nsamples = 637\nvalue = [461, 176]\nclass = spam"] ;
166 -> 167 ;
168 [label="and <= 1.5\ngini = 0.4997\nsamples = 273\nvalue = [133, 140]\nclass = ham"] ;
167 -> 168 ;
169 [label="a <= 2.5\ngini = 0.2064\nsamples = 77\nvalue = [68, 9]\nclass = spam"] ;
168 -> 169 ;
170 [label="subject_length <= 7.0\ngini = 0.1123\nsamples = 67\nvalue = [63, 4]\nclass = spam"] ;
169 -> 170 ;
171 [label="gini = 0.0\nsamples = 2\nvalue = [0, 2]\nclass = ham"] ;
170 -> 171 ;
172 [label="subject_length <= 14.5\ngini = 0.0596\nsamples = 65\nvalue = [63, 2]\nclass = spam"] ;
170 -> 172 ;
173 [label="the <= 1.5\ngini = 0.32\nsamples = 5\nvalue = [4, 1]\nclass = spam"] ;
172 -> 173 ;
174 [label="gini = 0.0\nsamples = 1\nvalue = [0, 1]\nclass = ham"] ;
173 -> 174 ;
175 [label="gini = 0.0\nsamples = 4\nvalue = [4, 0]\nclass = spam"] ;
173 -> 175 ;
176 [label="headers_count <= 13.5\ngini = 0.0328\nsamples = 60\nvalue = [59, 1]\nclass = spam"] ;
172 -> 176 ;
177 [label="gini = 0.0\nsamples = 51\nvalue = [51, 0]\nclass = spam"] ;
176 -> 177 ;
178 [label="raw_mail_len <= 418.5\ngini = 0.1975\nsamples = 9\nvalue = [8, 1]\nclass = spam"] ;
176 -> 178 ;
179 [label="gini = 0.0\nsamples = 1\nvalue = [0, 1]\nclass = ham"] ;
178 -> 179 ;
180 [label="gini = 0.0\nsamples = 8\nvalue = [8, 0]\nclass = spam"] ;
178 -> 180 ;
181 [label="uppercase_count <= 294.5\ngini = 0.5\nsamples = 10\nvalue = [5, 5]\nclass = spam"] ;
169 -> 181 ;
182 [label="gini = 0.0\nsamples = 5\nvalue = [0, 5]\nclass = ham"] ;
181 -> 182 ;
183 [label="gini = 0.0\nsamples = 5\nvalue = [5, 0]\nclass = spam"] ;
181 -> 183 ;
184 [label="parts_count <= 2.5\ngini = 0.4433\nsamples = 196\nvalue = [65, 131]\nclass = ham"] ;
168 -> 184 ;
185 [label="in <= 2.5\ngini = 0.2793\nsamples = 143\nvalue = [24, 119]\nclass = ham"] ;
184 -> 185 ;
186 [label="uppercase_count <= 87.5\ngini = 0.4938\nsamples = 45\nvalue = [20, 25]\nclass = ham"] ;
185 -> 186 ;
187 [label="subject_length <= 7.5\ngini = 0.375\nsamples = 32\nvalue = [8, 24]\nclass = ham"] ;
186 -> 187 ;
188 [label="gini = 0.0\nsamples = 4\nvalue = [4, 0]\nclass = spam"] ;
187 -> 188 ;
189 [label="spaces_over_len <= 0.156\ngini = 0.2449\nsamples = 28\nvalue = [4, 24]\nclass = ham"] ;
187 -> 189 ;
190 [label="gini = 0.0\nsamples = 19\nvalue = [0, 19]\nclass = ham"] ;
189 -> 190 ;
191 [label="to <= 5.5\ngini = 0.4938\nsamples = 9\nvalue = [4, 5]\nclass = ham"] ;
189 -> 191 ;
192 [label="gini = 0.0\nsamples = 4\nvalue = [4, 0]\nclass = spam"] ;
191 -> 192 ;
193 [label="gini = 0.0\nsamples = 5\nvalue = [0, 5]\nclass = ham"] ;
191 -> 193 ;
194 [label="a <= 1.0\ngini = 0.142\nsamples = 13\nvalue = [12, 1]\nclass = spam"] ;
186 -> 194 ;
195 [label="gini = 0.0\nsamples = 1\nvalue = [0, 1]\nclass = ham"] ;
194 -> 195 ;
196 [label="gini = 0.0\nsamples = 12\nvalue = [12, 0]\nclass = spam"] ;
194 -> 196 ;
197 [label="content_transfer_encoding, <= 7.0\ngini = 0.0783\nsamples = 98\nvalue = [4, 94]\nclass = ham"] ;
185 -> 197 ;
198 [label="gini = 0.0\nsamples = 1\nvalue = [1, 0]\nclass = spam"] ;
197 -> 198 ;
199 [label="headers_count <= 2.0\ngini = 0.0599\nsamples = 97\nvalue = [3, 94]\nclass = ham"] ;
197 -> 199 ;
200 [label="gini = 0.0\nsamples = 1\nvalue = [1, 0]\nclass = spam"] ;
199 -> 200 ;
201 [label="recipient_count <= 16.5\ngini = 0.0408\nsamples = 96\nvalue = [2, 94]\nclass = ham"] ;
199 -> 201 ;
202 [label="the <= 44.0\ngini = 0.0208\nsamples = 95\nvalue = [1, 94]\nclass = ham"] ;
201 -> 202 ;
203 [label="gini = 0.0\nsamples = 90\nvalue = [0, 90]\nclass = ham"] ;
202 -> 203 ;
204 [label="spell_error_count <= 19.5\ngini = 0.32\nsamples = 5\nvalue = [1, 4]\nclass = ham"] ;
202 -> 204 ;
205 [label="gini = 0.0\nsamples = 1\nvalue = [1, 0]\nclass = spam"] ;
204 -> 205 ;
206 [label="gini = 0.0\nsamples = 4\nvalue = [0, 4]\nclass = ham"] ;
204 -> 206 ;
207 [label="gini = 0.0\nsamples = 1\nvalue = [1, 0]\nclass = spam"] ;
201 -> 207 ;
208 [label="has_cc <= 0.5\ngini = 0.3503\nsamples = 53\nvalue = [41, 12]\nclass = spam"] ;
184 -> 208 ;
209 [label="in <= 17.5\ngini = 0.2227\nsamples = 47\nvalue = [41, 6]\nclass = spam"] ;
208 -> 209 ;
210 [label="recipient_count <= 0.5\ngini = 0.1298\nsamples = 43\nvalue = [40, 3]\nclass = spam"] ;
209 -> 210 ;
211 [label="gini = 0.0\nsamples = 1\nvalue = [0, 1]\nclass = ham"] ;
210 -> 211 ;
212 [label="uppercase_count <= 209.0\ngini = 0.0907\nsamples = 42\nvalue = [40, 2]\nclass = spam"] ;
210 -> 212 ;
213 [label="uppercase_count <= 177.5\ngini = 0.2975\nsamples = 11\nvalue = [9, 2]\nclass = spam"] ;
212 -> 213 ;
214 [label="mailer <= 407.0\ngini = 0.18\nsamples = 10\nvalue = [9, 1]\nclass = spam"] ;
213 -> 214 ;
215 [label="gini = 0.0\nsamples = 9\nvalue = [9, 0]\nclass = spam"] ;
214 -> 215 ;
216 [label="gini = 0.0\nsamples = 1\nvalue = [0, 1]\nclass = ham"] ;
214 -> 216 ;
217 [label="gini = 0.0\nsamples = 1\nvalue = [0, 1]\nclass = ham"] ;
213 -> 217 ;
218 [label="gini = 0.0\nsamples = 31\nvalue = [31, 0]\nclass = spam"] ;
212 -> 218 ;
219 [label="raw_body_count_spaces <= 2150.5\ngini = 0.375\nsamples = 4\nvalue = [1, 3]\nclass = ham"] ;
209 -> 219 ;
220 [label="gini = 0.0\nsamples = 3\nvalue = [0, 3]\nclass = ham"] ;
219 -> 220 ;
221 [label="gini = 0.0\nsamples = 1\nvalue = [1, 0]\nclass = spam"] ;
219 -> 221 ;
222 [label="gini = 0.0\nsamples = 6\nvalue = [0, 6]\nclass = ham"] ;
208 -> 222 ;
223 [label="of <= 30.5\ngini = 0.1782\nsamples = 364\nvalue = [328, 36]\nclass = spam"] ;
167 -> 223 ;
224 [label="recipient_count <= 1.5\ngini = 0.132\nsamples = 352\nvalue = [327, 25]\nclass = spam"] ;
223 -> 224 ;
225 [label="mailer <= 934.5\ngini = 0.318\nsamples = 121\nvalue = [97, 24]\nclass = spam"] ;
224 -> 225 ;
226 [label="content_transfer_encoding, <= 19.5\ngini = 0.1435\nsamples = 90\nvalue = [83, 7]\nclass = spam"] ;
225 -> 226 ;
227 [label="gini = 0.0\nsamples = 3\nvalue = [0, 3]\nclass = ham"] ;
226 -> 227 ;
228 [label="to <= 29.0\ngini = 0.0877\nsamples = 87\nvalue = [83, 4]\nclass = spam"] ;
226 -> 228 ;
229 [label="and <= 5.5\ngini = 0.0673\nsamples = 86\nvalue = [83, 3]\nclass = spam"] ;
228 -> 229 ;
230 [label="gini = 0.0\nsamples = 59\nvalue = [59, 0]\nclass = spam"] ;
229 -> 230 ;
231 [label="the <= 5.5\ngini = 0.1975\nsamples = 27\nvalue = [24, 3]\nclass = spam"] ;
229 -> 231 ;
232 [label="gini = 0.0\nsamples = 3\nvalue = [0, 3]\nclass = ham"] ;
231 -> 232 ;
233 [label="gini = 0.0\nsamples = 24\nvalue = [24, 0]\nclass = spam"] ;
231 -> 233 ;
234 [label="gini = 0.0\nsamples = 1\nvalue = [0, 1]\nclass = ham"] ;
228 -> 234 ;
235 [label="content_type <= 6.5\ngini = 0.4953\nsamples = 31\nvalue = [14, 17]\nclass = ham"] ;
225 -> 235 ;
236 [label="subject_length <= 96.5\ngini = 0.32\nsamples = 15\nvalue = [3, 12]\nclass = ham"] ;
235 -> 236 ;
237 [label="for <= 6.5\ngini = 0.142\nsamples = 13\nvalue = [1, 12]\nclass = ham"] ;
236 -> 237 ;
238 [label="gini = 0.0\nsamples = 12\nvalue = [0, 12]\nclass = ham"] ;
237 -> 238 ;
239 [label="gini = 0.0\nsamples = 1\nvalue = [1, 0]\nclass = spam"] ;
237 -> 239 ;
240 [label="gini = 0.0\nsamples = 2\nvalue = [2, 0]\nclass = spam"] ;
236 -> 240 ;
241 [label="content_transfer_encoding, <= 15.0\ngini = 0.4297\nsamples = 16\nvalue = [11, 5]\nclass = spam"] ;
235 -> 241 ;
242 [label="gini = 0.0\nsamples = 4\nvalue = [0, 4]\nclass = ham"] ;
241 -> 242 ;
243 [label="in <= 13.0\ngini = 0.1528\nsamples = 12\nvalue = [11, 1]\nclass = spam"] ;
241 -> 243 ;
244 [label="gini = 0.0\nsamples = 11\nvalue = [11, 0]\nclass = spam"] ;
243 -> 244 ;
245 [label="gini = 0.0\nsamples = 1\nvalue = [0, 1]\nclass = ham"] ;
243 -> 245 ;
246 [label="subject_length <= 4.5\ngini = 0.0086\nsamples = 231\nvalue = [230, 1]\nclass = spam"] ;
224 -> 246 ;
247 [label="raw_mail_len <= 1068.0\ngini = 0.18\nsamples = 10\nvalue = [9, 1]\nclass = spam"] ;
246 -> 247 ;
248 [label="gini = 0.0\nsamples = 1\nvalue = [0, 1]\nclass = ham"] ;
247 -> 248 ;
249 [label="gini = 0.0\nsamples = 9\nvalue = [9, 0]\nclass = spam"] ;
247 -> 249 ;
250 [label="gini = 0.0\nsamples = 221\nvalue = [221, 0]\nclass = spam"] ;
246 -> 250 ;
251 [label="headers_count <= 16.5\ngini = 0.1528\nsamples = 12\nvalue = [1, 11]\nclass = ham"] ;
223 -> 251 ;
252 [label="gini = 0.0\nsamples = 11\nvalue = [0, 11]\nclass = ham"] ;
251 -> 252 ;
253 [label="gini = 0.0\nsamples = 1\nvalue = [1, 0]\nclass = spam"] ;
251 -> 253 ;
254 [label="of <= 0.5\ngini = 0.4627\nsamples = 1954\nvalue = [710, 1244]\nclass = ham"] ;
166 -> 254 ;
255 [label="parts_count <= 1.5\ngini = 0.4833\nsamples = 612\nvalue = [362, 250]\nclass = spam"] ;
254 -> 255 ;
256 [label="uppercase_count <= 19.5\ngini = 0.4104\nsamples = 482\nvalue = [343, 139]\nclass = spam"] ;
255 -> 256 ;
257 [label="to <= 2.5\ngini = 0.4692\nsamples = 141\nvalue = [53, 88]\nclass = ham"] ;
256 -> 257 ;
258 [label="raw_mail_len <= 259.0\ngini = 0.084\nsamples = 91\nvalue = [4, 87]\nclass = ham"] ;
257 -> 258 ;
259 [label="spaces_over_len <= 0.1211\ngini = 0.4898\nsamples = 7\nvalue = [3, 4]\nclass = ham"] ;
258 -> 259 ;
260 [label="gini = 0.0\nsamples = 4\nvalue = [0, 4]\nclass = ham"] ;
259 -> 260 ;
261 [label="gini = 0.0\nsamples = 3\nvalue = [3, 0]\nclass = spam"] ;
259 -> 261 ;
262 [label="uppercase_count <= 18.5\ngini = 0.0235\nsamples = 84\nvalue = [1, 83]\nclass = ham"] ;
258 -> 262 ;
263 [label="gini = 0.0\nsamples = 82\nvalue = [0, 82]\nclass = ham"] ;
262 -> 263 ;
264 [label="spaces_over_len <= 0.1271\ngini = 0.5\nsamples = 2\nvalue = [1, 1]\nclass = spam"] ;
262 -> 264 ;
265 [label="gini = 0.0\nsamples = 1\nvalue = [1, 0]\nclass = spam"] ;
264 -> 265 ;
266 [label="gini = 0.0\nsamples = 1\nvalue = [0, 1]\nclass = ham"] ;
264 -> 266 ;
267 [label="and <= 0.5\ngini = 0.0392\nsamples = 50\nvalue = [49, 1]\nclass = spam"] ;
257 -> 267 ;
268 [label="gini = 0.0\nsamples = 1\nvalue = [0, 1]\nclass = ham"] ;
267 -> 268 ;
269 [label="gini = 0.0\nsamples = 49\nvalue = [49, 0]\nclass = spam"] ;
267 -> 269 ;
270 [label="spell_error_count <= 32.5\ngini = 0.2544\nsamples = 341\nvalue = [290, 51]\nclass = spam"] ;
256 -> 270 ;
271 [label="a <= 2.5\ngini = 0.1658\nsamples = 318\nvalue = [289, 29]\nclass = spam"] ;
270 -> 271 ;
272 [label="subject_length <= 13.5\ngini = 0.1323\nsamples = 309\nvalue = [287, 22]\nclass = spam"] ;
271 -> 272 ;
273 [label="gini = 0.0\nsamples = 3\nvalue = [0, 3]\nclass = ham"] ;
272 -> 273 ;
274 [label="mailer <= 155.0\ngini = 0.1165\nsamples = 306\nvalue = [287, 19]\nclass = spam"] ;
272 -> 274 ;
275 [label="gini = 0.0\nsamples = 2\nvalue = [0, 2]\nclass = ham"] ;
274 -> 275 ;
276 [label="headers_count <= 10.0\ngini = 0.1056\nsamples = 304\nvalue = [287, 17]\nclass = spam"] ;
274 -> 276 ;
277 [label="gini = 0.0\nsamples = 2\nvalue = [0, 2]\nclass = ham"] ;
276 -> 277 ;
278 [label="spaces_over_len <= 0.1198\ngini = 0.0944\nsamples = 302\nvalue = [287, 15]\nclass = spam"] ;
276 -> 278 ;
279 [label="and <= 3.5\ngini = 0.0456\nsamples = 257\nvalue = [251, 6]\nclass = spam"] ;
278 -> 279 ;
280 [label="uppercase_count <= 91.0\ngini = 0.0309\nsamples = 255\nvalue = [251, 4]\nclass = spam"] ;
279 -> 280 ;
281 [label="gini = 0.0233\nsamples = 254\nvalue = [251, 3]\nclass = spam"] ;
280 -> 281 ;
282 [label="gini = 0.0\nsamples = 1\nvalue = [0, 1]\nclass = ham"] ;
280 -> 282 ;
283 [label="gini = 0.0\nsamples = 2\nvalue = [0, 2]\nclass = ham"] ;
279 -> 283 ;
284 [label="uppercase_count <= 21.5\ngini = 0.32\nsamples = 45\nvalue = [36, 9]\nclass = spam"] ;
278 -> 284 ;
285 [label="gini = 0.0\nsamples = 4\nvalue = [0, 4]\nclass = ham"] ;
284 -> 285 ;
286 [label="in <= 0.5\ngini = 0.2142\nsamples = 41\nvalue = [36, 5]\nclass = spam"] ;
284 -> 286 ;
287 [label="gini = 0.0\nsamples = 31\nvalue = [31, 0]\nclass = spam"] ;
286 -> 287 ;
288 [label="gini = 0.5\nsamples = 10\nvalue = [5, 5]\nclass = spam"] ;
286 -> 288 ;
289 [label="a <= 3.5\ngini = 0.3457\nsamples = 9\nvalue = [2, 7]\nclass = ham"] ;
271 -> 289 ;
290 [label="gini = 0.0\nsamples = 6\nvalue = [0, 6]\nclass = ham"] ;
289 -> 290 ;
291 [label="has_dollar <= 0.5\ngini = 0.4444\nsamples = 3\nvalue = [2, 1]\nclass = spam"] ;
289 -> 291 ;
292 [label="gini = 0.0\nsamples = 2\nvalue = [2, 0]\nclass = spam"] ;
291 -> 292 ;
293 [label="gini = 0.0\nsamples = 1\nvalue = [0, 1]\nclass = ham"] ;
291 -> 293 ;
294 [label="the <= 5.5\ngini = 0.0832\nsamples = 23\nvalue = [1, 22]\nclass = ham"] ;
270 -> 294 ;
295 [label="gini = 0.0\nsamples = 22\nvalue = [0, 22]\nclass = ham"] ;
294 -> 295 ;
296 [label="gini = 0.0\nsamples = 1\nvalue = [1, 0]\nclass = spam"] ;
294 -> 296 ;
297 [label="and <= 7.0\ngini = 0.2496\nsamples = 130\nvalue = [19, 111]\nclass = ham"] ;
255 -> 297 ;
298 [label="content_type <= 6.5\ngini = 0.1761\nsamples = 123\nvalue = [12, 111]\nclass = ham"] ;
297 -> 298 ;
299 [label="a <= 9.5\ngini = 0.0868\nsamples = 110\nvalue = [5, 105]\nclass = ham"] ;
298 -> 299 ;
300 [label="mailer <= 209.5\ngini = 0.0707\nsamples = 109\nvalue = [4, 105]\nclass = ham"] ;
299 -> 300 ;
301 [label="gini = 0.0\nsamples = 1\nvalue = [1, 0]\nclass = spam"] ;
300 -> 301 ;
302 [label="parts_count <= 2.5\ngini = 0.054\nsamples = 108\nvalue = [3, 105]\nclass = ham"] ;
300 -> 302 ;
303 [label="gini = 0.0\nsamples = 88\nvalue = [0, 88]\nclass = ham"] ;
302 -> 303 ;
304 [label="spell_error_count <= 29.5\ngini = 0.255\nsamples = 20\nvalue = [3, 17]\nclass = ham"] ;
302 -> 304 ;
305 [label="headers_count <= 13.5\ngini = 0.375\nsamples = 4\nvalue = [3, 1]\nclass = spam"] ;
304 -> 305 ;
306 [label="gini = 0.0\nsamples = 1\nvalue = [0, 1]\nclass = ham"] ;
305 -> 306 ;
307 [label="gini = 0.0\nsamples = 3\nvalue = [3, 0]\nclass = spam"] ;
305 -> 307 ;
308 [label="gini = 0.0\nsamples = 16\nvalue = [0, 16]\nclass = ham"] ;
304 -> 308 ;
309 [label="gini = 0.0\nsamples = 1\nvalue = [1, 0]\nclass = spam"] ;
299 -> 309 ;
310 [label="spaces_over_len <= 0.0733\ngini = 0.497\nsamples = 13\nvalue = [7, 6]\nclass = spam"] ;
298 -> 310 ;
311 [label="gini = 0.0\nsamples = 5\nvalue = [5, 0]\nclass = spam"] ;
310 -> 311 ;
312 [label="recipient_count <= 4.0\ngini = 0.375\nsamples = 8\nvalue = [2, 6]\nclass = ham"] ;
310 -> 312 ;
313 [label="gini = 0.0\nsamples = 6\nvalue = [0, 6]\nclass = ham"] ;
312 -> 313 ;
314 [label="gini = 0.0\nsamples = 2\nvalue = [2, 0]\nclass = spam"] ;
312 -> 314 ;
315 [label="gini = 0.0\nsamples = 7\nvalue = [7, 0]\nclass = spam"] ;
297 -> 315 ;
316 [label="the <= 6.5\ngini = 0.3841\nsamples = 1342\nvalue = [348, 994]\nclass = ham"] ;
254 -> 316 ;
317 [label="parts_count <= 1.5\ngini = 0.2146\nsamples = 720\nvalue = [88, 632]\nclass = ham"] ;
316 -> 317 ;
318 [label="raw_mail_len <= 633.5\ngini = 0.306\nsamples = 419\nvalue = [79, 340]\nclass = ham"] ;
317 -> 318 ;
319 [label="mailer <= 175.5\ngini = 0.0575\nsamples = 135\nvalue = [4, 131]\nclass = ham"] ;
318 -> 319 ;
320 [label="gini = 0.0\nsamples = 1\nvalue = [1, 0]\nclass = spam"] ;
319 -> 320 ;
321 [label="content_type <= 3.0\ngini = 0.0438\nsamples = 134\nvalue = [3, 131]\nclass = ham"] ;
319 -> 321 ;
322 [label="gini = 0.0\nsamples = 122\nvalue = [0, 122]\nclass = ham"] ;
321 -> 322 ;
323 [label="raw_body_count_spaces <= 54.5\ngini = 0.375\nsamples = 12\nvalue = [3, 9]\nclass = ham"] ;
321 -> 323 ;
324 [label="spell_error_count <= 10.5\ngini = 0.375\nsamples = 4\nvalue = [3, 1]\nclass = spam"] ;
323 -> 324 ;
325 [label="gini = 0.0\nsamples = 3\nvalue = [3, 0]\nclass = spam"] ;
324 -> 325 ;
326 [label="gini = 0.0\nsamples = 1\nvalue = [0, 1]\nclass = ham"] ;
324 -> 326 ;
327 [label="gini = 0.0\nsamples = 8\nvalue = [0, 8]\nclass = ham"] ;
323 -> 327 ;
328 [label="raw_body_count_spaces <= 87.5\ngini = 0.3887\nsamples = 284\nvalue = [75, 209]\nclass = ham"] ;
318 -> 328 ;
329 [label="a <= 0.5\ngini = 0.375\nsamples = 20\nvalue = [15, 5]\nclass = spam"] ;
328 -> 329 ;
330 [label="gini = 0.0\nsamples = 11\nvalue = [11, 0]\nclass = spam"] ;
329 -> 330 ;
331 [label="of <= 3.5\ngini = 0.4938\nsamples = 9\nvalue = [4, 5]\nclass = ham"] ;
329 -> 331 ;
332 [label="gini = 0.0\nsamples = 5\nvalue = [0, 5]\nclass = ham"] ;
331 -> 332 ;
333 [label="gini = 0.0\nsamples = 4\nvalue = [4, 0]\nclass = spam"] ;
331 -> 333 ;
334 [label="content_type <= 3.0\ngini = 0.3512\nsamples = 264\nvalue = [60, 204]\nclass = ham"] ;
328 -> 334 ;
335 [label="uppercase_count <= 73.0\ngini = 0.4344\nsamples = 138\nvalue = [44, 94]\nclass = ham"] ;
334 -> 335 ;
336 [label="subject_length <= 52.5\ngini = 0.2542\nsamples = 87\nvalue = [13, 74]\nclass = ham"] ;
335 -> 336 ;
337 [label="spaces_over_len <= 0.1057\ngini = 0.1229\nsamples = 76\nvalue = [5, 71]\nclass = ham"] ;
336 -> 337 ;
338 [label="gini = 0.0\nsamples = 1\nvalue = [1, 0]\nclass = spam"] ;
337 -> 338 ;
339 [label="headers_count <= 15.5\ngini = 0.101\nsamples = 75\nvalue = [4, 71]\nclass = ham"] ;
337 -> 339 ;
340 [label="for <= 3.5\ngini = 0.0778\nsamples = 74\nvalue = [3, 71]\nclass = ham"] ;
339 -> 340 ;
341 [label="gini = 0.054\nsamples = 72\nvalue = [2, 70]\nclass = ham"] ;
340 -> 341 ;
342 [label="gini = 0.5\nsamples = 2\nvalue = [1, 1]\nclass = spam"] ;
340 -> 342 ;
343 [label="gini = 0.0\nsamples = 1\nvalue = [1, 0]\nclass = spam"] ;
339 -> 343 ;
344 [label="of <= 3.0\ngini = 0.3967\nsamples = 11\nvalue = [8, 3]\nclass = spam"] ;
336 -> 344 ;
345 [label="recipient_count <= 1.5\ngini = 0.375\nsamples = 4\nvalue = [1, 3]\nclass = ham"] ;
344 -> 345 ;
346 [label="gini = 0.0\nsamples = 3\nvalue = [0, 3]\nclass = ham"] ;
345 -> 346 ;
347 [label="gini = 0.0\nsamples = 1\nvalue = [1, 0]\nclass = spam"] ;
345 -> 347 ;
348 [label="gini = 0.0\nsamples = 7\nvalue = [7, 0]\nclass = spam"] ;
344 -> 348 ;
349 [label="has_dollar <= 0.5\ngini = 0.4767\nsamples = 51\nvalue = [31, 20]\nclass = spam"] ;
335 -> 349 ;
350 [label="mailer <= 1140.5\ngini = 0.2188\nsamples = 24\nvalue = [21, 3]\nclass = spam"] ;
349 -> 350 ;
351 [label="gini = 0.0\nsamples = 1\nvalue = [0, 1]\nclass = ham"] ;
350 -> 351 ;
352 [label="for <= 0.5\ngini = 0.1588\nsamples = 23\nvalue = [21, 2]\nclass = spam"] ;
350 -> 352 ;
353 [label="gini = 0.0\nsamples = 1\nvalue = [0, 1]\nclass = ham"] ;
352 -> 353 ;
354 [label="spell_error_count <= 24.0\ngini = 0.0868\nsamples = 22\nvalue = [21, 1]\nclass = spam"] ;
352 -> 354 ;
355 [label="gini = 0.0\nsamples = 19\nvalue = [19, 0]\nclass = spam"] ;
354 -> 355 ;
356 [label="gini = 0.4444\nsamples = 3\nvalue = [2, 1]\nclass = spam"] ;
354 -> 356 ;
357 [label="uppercase_count <= 86.0\ngini = 0.4664\nsamples = 27\nvalue = [10, 17]\nclass = ham"] ;
349 -> 357 ;
358 [label="gini = 0.0\nsamples = 5\nvalue = [5, 0]\nclass = spam"] ;
357 -> 358 ;
359 [label="spell_error_count <= 5.5\ngini = 0.3512\nsamples = 22\nvalue = [5, 17]\nclass = ham"] ;
357 -> 359 ;
360 [label="gini = 0.0\nsamples = 2\nvalue = [2, 0]\nclass = spam"] ;
359 -> 360 ;
361 [label="the <= 3.5\ngini = 0.255\nsamples = 20\nvalue = [3, 17]\nclass = ham"] ;
359 -> 361 ;
362 [label="gini = 0.0\nsamples = 11\nvalue = [0, 11]\nclass = ham"] ;
361 -> 362 ;
363 [label="gini = 0.4444\nsamples = 9\nvalue = [3, 6]\nclass = ham"] ;
361 -> 363 ;
364 [label="recipient_count <= 3.0\ngini = 0.2217\nsamples = 126\nvalue = [16, 110]\nclass = ham"] ;
334 -> 364 ;
365 [label="uppercase_count <= 52.5\ngini = 0.189\nsamples = 123\nvalue = [13, 110]\nclass = ham"] ;
364 -> 365 ;
366 [label="spaces_over_len <= 0.1275\ngini = 0.4444\nsamples = 18\nvalue = [6, 12]\nclass = ham"] ;
365 -> 366 ;
367 [label="gini = 0.0\nsamples = 9\nvalue = [0, 9]\nclass = ham"] ;
366 -> 367 ;
368 [label="mailer <= 448.5\ngini = 0.4444\nsamples = 9\nvalue = [6, 3]\nclass = spam"] ;
366 -> 368 ;
369 [label="gini = 0.0\nsamples = 2\nvalue = [0, 2]\nclass = ham"] ;
368 -> 369 ;
370 [label="a <= 1.0\ngini = 0.2449\nsamples = 7\nvalue = [6, 1]\nclass = spam"] ;
368 -> 370 ;
371 [label="gini = 0.0\nsamples = 1\nvalue = [0, 1]\nclass = ham"] ;
370 -> 371 ;
372 [label="gini = 0.0\nsamples = 6\nvalue = [6, 0]\nclass = spam"] ;
370 -> 372 ;
373 [label="headers_count <= 13.5\ngini = 0.1244\nsamples = 105\nvalue = [7, 98]\nclass = ham"] ;
365 -> 373 ;
374 [label="the <= 3.5\ngini = 0.3122\nsamples = 31\nvalue = [6, 25]\nclass = ham"] ;
373 -> 374 ;
375 [label="uppercase_count <= 96.0\ngini = 0.497\nsamples = 13\nvalue = [6, 7]\nclass = ham"] ;
374 -> 375 ;
376 [label="gini = 0.0\nsamples = 5\nvalue = [0, 5]\nclass = ham"] ;
375 -> 376 ;
377 [label="gini = 0.375\nsamples = 8\nvalue = [6, 2]\nclass = spam"] ;
375 -> 377 ;
378 [label="gini = 0.0\nsamples = 18\nvalue = [0, 18]\nclass = ham"] ;
374 -> 378 ;
379 [label="raw_mail_len <= 7559.5\ngini = 0.0267\nsamples = 74\nvalue = [1, 73]\nclass = ham"] ;
373 -> 379 ;
380 [label="gini = 0.0\nsamples = 72\nvalue = [0, 72]\nclass = ham"] ;
379 -> 380 ;
381 [label="content_transfer_encoding, <= 10.5\ngini = 0.5\nsamples = 2\nvalue = [1, 1]\nclass = spam"] ;
379 -> 381 ;
382 [label="gini = 0.0\nsamples = 1\nvalue = [1, 0]\nclass = spam"] ;
381 -> 382 ;
383 [label="gini = 0.0\nsamples = 1\nvalue = [0, 1]\nclass = ham"] ;
381 -> 383 ;
384 [label="gini = 0.0\nsamples = 3\nvalue = [3, 0]\nclass = spam"] ;
364 -> 384 ;
385 [label="recipient_count <= 14.0\ngini = 0.058\nsamples = 301\nvalue = [9, 292]\nclass = ham"] ;
317 -> 385 ;
386 [label="content_transfer_encoding, <= 13.0\ngini = 0.0395\nsamples = 298\nvalue = [6, 292]\nclass = ham"] ;
385 -> 386 ;
387 [label="gini = 0.0\nsamples = 1\nvalue = [1, 0]\nclass = spam"] ;
386 -> 387 ;
388 [label="mailer <= 548.5\ngini = 0.0331\nsamples = 297\nvalue = [5, 292]\nclass = ham"] ;
386 -> 388 ;
389 [label="spaces_over_len <= 0.1028\ngini = 0.2285\nsamples = 38\nvalue = [5, 33]\nclass = ham"] ;
388 -> 389 ;
390 [label="recipient_count <= 5.5\ngini = 0.0588\nsamples = 33\nvalue = [1, 32]\nclass = ham"] ;
389 -> 390 ;
391 [label="gini = 0.0\nsamples = 32\nvalue = [0, 32]\nclass = ham"] ;
390 -> 391 ;
392 [label="gini = 0.0\nsamples = 1\nvalue = [1, 0]\nclass = spam"] ;
390 -> 392 ;
393 [label="subject_length <= 50.0\ngini = 0.32\nsamples = 5\nvalue = [4, 1]\nclass = spam"] ;
389 -> 393 ;
394 [label="gini = 0.0\nsamples = 4\nvalue = [4, 0]\nclass = spam"] ;
393 -> 394 ;
395 [label="gini = 0.0\nsamples = 1\nvalue = [0, 1]\nclass = ham"] ;
393 -> 395 ;
396 [label="gini = 0.0\nsamples = 259\nvalue = [0, 259]\nclass = ham"] ;
388 -> 396 ;
397 [label="gini = 0.0\nsamples = 3\nvalue = [3, 0]\nclass = spam"] ;
385 -> 397 ;
398 [label="recipient_count <= 1.5\ngini = 0.4866\nsamples = 622\nvalue = [260, 362]\nclass = ham"] ;
316 -> 398 ;
399 [label="content_transfer_encoding, <= 17.0\ngini = 0.4585\nsamples = 545\nvalue = [194, 351]\nclass = ham"] ;
398 -> 399 ;
400 [label="the <= 26.5\ngini = 0.447\nsamples = 86\nvalue = [57, 29]\nclass = spam"] ;
399 -> 400 ;
401 [label="parts_count <= 3.0\ngini = 0.4861\nsamples = 48\nvalue = [20, 28]\nclass = ham"] ;
400 -> 401 ;
402 [label="subject_length <= 40.5\ngini = 0.3878\nsamples = 38\nvalue = [10, 28]\nclass = ham"] ;
401 -> 402 ;
403 [label="raw_body_count_spaces <= 246.5\ngini = 0.18\nsamples = 20\nvalue = [2, 18]\nclass = ham"] ;
402 -> 403 ;
404 [label="the <= 10.0\ngini = 0.5\nsamples = 4\nvalue = [2, 2]\nclass = spam"] ;
403 -> 404 ;
405 [label="gini = 0.0\nsamples = 2\nvalue = [0, 2]\nclass = ham"] ;
404 -> 405 ;
406 [label="gini = 0.0\nsamples = 2\nvalue = [2, 0]\nclass = spam"] ;
404 -> 406 ;
407 [label="gini = 0.0\nsamples = 16\nvalue = [0, 16]\nclass = ham"] ;
403 -> 407 ;
408 [label="subject_length <= 61.5\ngini = 0.4938\nsamples = 18\nvalue = [8, 10]\nclass = ham"] ;
402 -> 408 ;
409 [label="spell_error_count <= 70.0\ngini = 0.4898\nsamples = 14\nvalue = [8, 6]\nclass = spam"] ;
408 -> 409 ;
410 [label="to <= 4.0\ngini = 0.2449\nsamples = 7\nvalue = [6, 1]\nclass = spam"] ;
409 -> 410 ;
411 [label="gini = 0.0\nsamples = 1\nvalue = [0, 1]\nclass = ham"] ;
410 -> 411 ;
412 [label="gini = 0.0\nsamples = 6\nvalue = [6, 0]\nclass = spam"] ;
410 -> 412 ;
413 [label="a <= 12.0\ngini = 0.4082\nsamples = 7\nvalue = [2, 5]\nclass = ham"] ;
409 -> 413 ;
414 [label="gini = 0.0\nsamples = 5\nvalue = [0, 5]\nclass = ham"] ;
413 -> 414 ;
415 [label="gini = 0.0\nsamples = 2\nvalue = [2, 0]\nclass = spam"] ;
413 -> 415 ;
416 [label="gini = 0.0\nsamples = 4\nvalue = [0, 4]\nclass = ham"] ;
408 -> 416 ;
417 [label="gini = 0.0\nsamples = 10\nvalue = [10, 0]\nclass = spam"] ;
401 -> 417 ;
418 [label="subject_length <= 21.5\ngini = 0.0512\nsamples = 38\nvalue = [37, 1]\nclass = spam"] ;
400 -> 418 ;
419 [label="gini = 0.0\nsamples = 1\nvalue = [0, 1]\nclass = ham"] ;
418 -> 419 ;
420 [label="gini = 0.0\nsamples = 37\nvalue = [37, 0]\nclass = spam"] ;
418 -> 420 ;
421 [label="headers_count <= 11.5\ngini = 0.4188\nsamples = 459\nvalue = [137, 322]\nclass = ham"] ;
399 -> 421 ;
422 [label="subject_length <= 40.5\ngini = 0.2268\nsamples = 23\nvalue = [20, 3]\nclass = spam"] ;
421 -> 422 ;
423 [label="and <= 12.5\ngini = 0.0907\nsamples = 21\nvalue = [20, 1]\nclass = spam"] ;
422 -> 423 ;
424 [label="gini = 0.0\nsamples = 19\nvalue = [19, 0]\nclass = spam"] ;
423 -> 424 ;
425 [label="recipient_count <= 0.5\ngini = 0.5\nsamples = 2\nvalue = [1, 1]\nclass = spam"] ;
423 -> 425 ;
426 [label="gini = 0.0\nsamples = 1\nvalue = [0, 1]\nclass = ham"] ;
425 -> 426 ;
427 [label="gini = 0.0\nsamples = 1\nvalue = [1, 0]\nclass = spam"] ;
425 -> 427 ;
428 [label="gini = 0.0\nsamples = 2\nvalue = [0, 2]\nclass = ham"] ;
422 -> 428 ;
429 [label="mailer <= 497.5\ngini = 0.3927\nsamples = 436\nvalue = [117, 319]\nclass = ham"] ;
421 -> 429 ;
430 [label="mailer <= 218.0\ngini = 0.4753\nsamples = 36\nvalue = [22, 14]\nclass = spam"] ;
429 -> 430 ;
431 [label="headers_count <= 14.5\ngini = 0.3599\nsamples = 17\nvalue = [4, 13]\nclass = ham"] ;
430 -> 431 ;
432 [label="mailer <= 168.0\ngini = 0.4444\nsamples = 6\nvalue = [4, 2]\nclass = spam"] ;
431 -> 432 ;
433 [label="gini = 0.0\nsamples = 4\nvalue = [4, 0]\nclass = spam"] ;
432 -> 433 ;
434 [label="gini = 0.0\nsamples = 2\nvalue = [0, 2]\nclass = ham"] ;
432 -> 434 ;
435 [label="gini = 0.0\nsamples = 11\nvalue = [0, 11]\nclass = ham"] ;
431 -> 435 ;
436 [label="a <= 1.0\ngini = 0.0997\nsamples = 19\nvalue = [18, 1]\nclass = spam"] ;
430 -> 436 ;
437 [label="gini = 0.0\nsamples = 1\nvalue = [0, 1]\nclass = ham"] ;
436 -> 437 ;
438 [label="gini = 0.0\nsamples = 18\nvalue = [18, 0]\nclass = spam"] ;
436 -> 438 ;
439 [label="parts_count <= 1.5\ngini = 0.3622\nsamples = 400\nvalue = [95, 305]\nclass = ham"] ;
429 -> 439 ;
440 [label="has_dollar <= 0.5\ngini = 0.4543\nsamples = 215\nvalue = [75, 140]\nclass = ham"] ;
439 -> 440 ;
441 [label="headers_count <= 12.5\ngini = 0.4998\nsamples = 94\nvalue = [48, 46]\nclass = spam"] ;
440 -> 441 ;
442 [label="to <= 0.5\ngini = 0.2449\nsamples = 21\nvalue = [3, 18]\nclass = ham"] ;
441 -> 442 ;
443 [label="gini = 0.0\nsamples = 1\nvalue = [1, 0]\nclass = spam"] ;
442 -> 443 ;
444 [label="for <= 5.0\ngini = 0.18\nsamples = 20\nvalue = [2, 18]\nclass = ham"] ;
442 -> 444 ;
445 [label="gini = 0.0997\nsamples = 19\nvalue = [1, 18]\nclass = ham"] ;
444 -> 445 ;
446 [label="gini = 0.0\nsamples = 1\nvalue = [1, 0]\nclass = spam"] ;
444 -> 446 ;
447 [label="spaces_over_len <= 0.1157\ngini = 0.4729\nsamples = 73\nvalue = [45, 28]\nclass = spam"] ;
441 -> 447 ;
448 [label="of <= 12.5\ngini = 0.2188\nsamples = 16\nvalue = [2, 14]\nclass = ham"] ;
447 -> 448 ;
449 [label="gini = 0.1244\nsamples = 15\nvalue = [1, 14]\nclass = ham"] ;
448 -> 449 ;
450 [label="gini = 0.0\nsamples = 1\nvalue = [1, 0]\nclass = spam"] ;
448 -> 450 ;
451 [label="content_type <= 3.0\ngini = 0.3706\nsamples = 57\nvalue = [43, 14]\nclass = spam"] ;
447 -> 451 ;
452 [label="gini = 0.0768\nsamples = 25\nvalue = [24, 1]\nclass = spam"] ;
451 -> 452 ;
453 [label="gini = 0.4824\nsamples = 32\nvalue = [19, 13]\nclass = spam"] ;
451 -> 453 ;
454 [label="the <= 46.0\ngini = 0.3467\nsamples = 121\nvalue = [27, 94]\nclass = ham"] ;
440 -> 454 ;
455 [label="raw_mail_len <= 4716.0\ngini = 0.2934\nsamples = 112\nvalue = [20, 92]\nclass = ham"] ;
454 -> 455 ;
456 [label="the <= 10.5\ngini = 0.4543\nsamples = 43\nvalue = [15, 28]\nclass = ham"] ;
455 -> 456 ;
457 [label="gini = 0.1244\nsamples = 15\nvalue = [1, 14]\nclass = ham"] ;
456 -> 457 ;
458 [label="gini = 0.5\nsamples = 28\nvalue = [14, 14]\nclass = spam"] ;
456 -> 458 ;
459 [label="for <= 3.5\ngini = 0.1344\nsamples = 69\nvalue = [5, 64]\nclass = ham"] ;
455 -> 459 ;
460 [label="gini = 0.48\nsamples = 5\nvalue = [3, 2]\nclass = spam"] ;
459 -> 460 ;
461 [label="gini = 0.0605\nsamples = 64\nvalue = [2, 62]\nclass = ham"] ;
459 -> 461 ;
462 [label="and <= 18.5\ngini = 0.3457\nsamples = 9\nvalue = [7, 2]\nclass = spam"] ;
454 -> 462 ;
463 [label="gini = 0.0\nsamples = 1\nvalue = [0, 1]\nclass = ham"] ;
462 -> 463 ;
464 [label="headers_count <= 12.5\ngini = 0.2188\nsamples = 8\nvalue = [7, 1]\nclass = spam"] ;
462 -> 464 ;
465 [label="gini = 0.0\nsamples = 1\nvalue = [0, 1]\nclass = ham"] ;
464 -> 465 ;
466 [label="gini = 0.0\nsamples = 7\nvalue = [7, 0]\nclass = spam"] ;
464 -> 466 ;
467 [label="the <= 15.5\ngini = 0.1928\nsamples = 185\nvalue = [20, 165]\nclass = ham"] ;
439 -> 467 ;
468 [label="uppercase_count <= 1125.0\ngini = 0.0196\nsamples = 101\nvalue = [1, 100]\nclass = ham"] ;
467 -> 468 ;
469 [label="gini = 0.0\nsamples = 98\nvalue = [0, 98]\nclass = ham"] ;
468 -> 469 ;
470 [label="and <= 3.0\ngini = 0.4444\nsamples = 3\nvalue = [1, 2]\nclass = ham"] ;
468 -> 470 ;
471 [label="gini = 0.0\nsamples = 1\nvalue = [1, 0]\nclass = spam"] ;
470 -> 471 ;
472 [label="gini = 0.0\nsamples = 2\nvalue = [0, 2]\nclass = ham"] ;
470 -> 472 ;
473 [label="headers_count <= 15.5\ngini = 0.3501\nsamples = 84\nvalue = [19, 65]\nclass = ham"] ;
467 -> 473 ;
474 [label="parts_count <= 2.5\ngini = 0.4522\nsamples = 55\nvalue = [19, 36]\nclass = ham"] ;
473 -> 474 ;
475 [label="spell_error_count <= 13.5\ngini = 0.1327\nsamples = 28\nvalue = [2, 26]\nclass = ham"] ;
474 -> 475 ;
476 [label="gini = 0.0\nsamples = 2\nvalue = [2, 0]\nclass = spam"] ;
475 -> 476 ;
477 [label="gini = 0.0\nsamples = 26\nvalue = [0, 26]\nclass = ham"] ;
475 -> 477 ;
478 [label="spell_error_count <= 350.5\ngini = 0.4664\nsamples = 27\nvalue = [17, 10]\nclass = spam"] ;
474 -> 478 ;
479 [label="gini = 0.3084\nsamples = 21\nvalue = [17, 4]\nclass = spam"] ;
478 -> 479 ;
480 [label="gini = 0.0\nsamples = 6\nvalue = [0, 6]\nclass = ham"] ;
478 -> 480 ;
481 [label="gini = 0.0\nsamples = 29\nvalue = [0, 29]\nclass = ham"] ;
473 -> 481 ;
482 [label="has_cc <= 0.5\ngini = 0.2449\nsamples = 77\nvalue = [66, 11]\nclass = spam"] ;
398 -> 482 ;
483 [label="content_transfer_encoding, <= 10.5\ngini = 0.0894\nsamples = 64\nvalue = [61, 3]\nclass = spam"] ;
482 -> 483 ;
484 [label="gini = 0.0\nsamples = 2\nvalue = [0, 2]\nclass = ham"] ;
483 -> 484 ;
485 [label="has_non_english_chars <= 0.5\ngini = 0.0317\nsamples = 62\nvalue = [61, 1]\nclass = spam"] ;
483 -> 485 ;
486 [label="gini = 0.0\nsamples = 59\nvalue = [59, 0]\nclass = spam"] ;
485 -> 486 ;
487 [label="subject_length <= 23.5\ngini = 0.4444\nsamples = 3\nvalue = [2, 1]\nclass = spam"] ;
485 -> 487 ;
488 [label="gini = 0.0\nsamples = 1\nvalue = [0, 1]\nclass = ham"] ;
487 -> 488 ;
489 [label="gini = 0.0\nsamples = 2\nvalue = [2, 0]\nclass = spam"] ;
487 -> 489 ;
490 [label="raw_body_count_spaces <= 445.5\ngini = 0.4734\nsamples = 13\nvalue = [5, 8]\nclass = ham"] ;
482 -> 490 ;
491 [label="headers_count <= 15.5\ngini = 0.1975\nsamples = 9\nvalue = [1, 8]\nclass = ham"] ;
490 -> 491 ;
492 [label="gini = 0.0\nsamples = 8\nvalue = [0, 8]\nclass = ham"] ;
491 -> 492 ;
493 [label="gini = 0.0\nsamples = 1\nvalue = [1, 0]\nclass = spam"] ;
491 -> 493 ;
494 [label="gini = 0.0\nsamples = 4\nvalue = [4, 0]\nclass = spam"] ;
490 -> 494 ;
495 [label="has_link <= 0.5\ngini = 0.4498\nsamples = 1095\nvalue = [721, 374]\nclass = spam"] ;
3 -> 495 ;
496 [label="content_type <= 7.5\ngini = 0.1904\nsamples = 563\nvalue = [503, 60]\nclass = spam"] ;
495 -> 496 ;
497 [label="spaces_over_len <= 0.0166\ngini = 0.0995\nsamples = 514\nvalue = [487, 27]\nclass = spam"] ;
496 -> 497 ;
498 [label="uppercase_count <= 50.0\ngini = 0.3658\nsamples = 83\nvalue = [63, 20]\nclass = spam"] ;
497 -> 498 ;
499 [label="mailer <= 933.5\ngini = 0.0317\nsamples = 62\nvalue = [61, 1]\nclass = spam"] ;
498 -> 499 ;
500 [label="gini = 0.0\nsamples = 56\nvalue = [56, 0]\nclass = spam"] ;
499 -> 500 ;
501 [label="headers_count <= 19.5\ngini = 0.2778\nsamples = 6\nvalue = [5, 1]\nclass = spam"] ;
499 -> 501 ;
502 [label="headers_count <= 18.5\ngini = 0.5\nsamples = 2\nvalue = [1, 1]\nclass = spam"] ;
501 -> 502 ;
503 [label="gini = 0.0\nsamples = 1\nvalue = [1, 0]\nclass = spam"] ;
502 -> 503 ;
504 [label="gini = 0.0\nsamples = 1\nvalue = [0, 1]\nclass = ham"] ;
502 -> 504 ;
505 [label="gini = 0.0\nsamples = 4\nvalue = [4, 0]\nclass = spam"] ;
501 -> 505 ;
506 [label="mailer <= 1225.0\ngini = 0.1723\nsamples = 21\nvalue = [2, 19]\nclass = ham"] ;
498 -> 506 ;
507 [label="gini = 0.0\nsamples = 19\nvalue = [0, 19]\nclass = ham"] ;
506 -> 507 ;
508 [label="gini = 0.0\nsamples = 2\nvalue = [2, 0]\nclass = spam"] ;
506 -> 508 ;
509 [label="uppercase_count <= 1.0\ngini = 0.032\nsamples = 431\nvalue = [424, 7]\nclass = spam"] ;
497 -> 509 ;
510 [label="raw_body_count_spaces <= 4.5\ngini = 0.5\nsamples = 2\nvalue = [1, 1]\nclass = spam"] ;
509 -> 510 ;
511 [label="gini = 0.0\nsamples = 1\nvalue = [1, 0]\nclass = spam"] ;
510 -> 511 ;
512 [label="gini = 0.0\nsamples = 1\nvalue = [0, 1]\nclass = ham"] ;
510 -> 512 ;
513 [label="of <= 7.5\ngini = 0.0276\nsamples = 429\nvalue = [423, 6]\nclass = spam"] ;
509 -> 513 ;
514 [label="the <= 13.5\ngini = 0.006\nsamples = 335\nvalue = [334, 1]\nclass = spam"] ;
513 -> 514 ;
515 [label="gini = 0.0\nsamples = 302\nvalue = [302, 0]\nclass = spam"] ;
514 -> 515 ;
516 [label="spell_error_count <= 4.5\ngini = 0.0588\nsamples = 33\nvalue = [32, 1]\nclass = spam"] ;
514 -> 516 ;
517 [label="gini = 0.0\nsamples = 1\nvalue = [0, 1]\nclass = ham"] ;
516 -> 517 ;
518 [label="gini = 0.0\nsamples = 32\nvalue = [32, 0]\nclass = spam"] ;
516 -> 518 ;
519 [label="uppercase_count <= 95.0\ngini = 0.1007\nsamples = 94\nvalue = [89, 5]\nclass = spam"] ;
513 -> 519 ;
520 [label="the <= 9.5\ngini = 0.5\nsamples = 6\nvalue = [3, 3]\nclass = spam"] ;
519 -> 520 ;
521 [label="gini = 0.0\nsamples = 2\nvalue = [0, 2]\nclass = ham"] ;
520 -> 521 ;
522 [label="mailer <= 755.0\ngini = 0.375\nsamples = 4\nvalue = [3, 1]\nclass = spam"] ;
520 -> 522 ;
523 [label="gini = 0.0\nsamples = 3\nvalue = [3, 0]\nclass = spam"] ;
522 -> 523 ;
524 [label="gini = 0.0\nsamples = 1\nvalue = [0, 1]\nclass = ham"] ;
522 -> 524 ;
525 [label="mailer <= 275.0\ngini = 0.0444\nsamples = 88\nvalue = [86, 2]\nclass = spam"] ;
519 -> 525 ;
526 [label="spell_error_count <= 159.5\ngini = 0.5\nsamples = 2\nvalue = [1, 1]\nclass = spam"] ;
525 -> 526 ;
527 [label="gini = 0.0\nsamples = 1\nvalue = [1, 0]\nclass = spam"] ;
526 -> 527 ;
528 [label="gini = 0.0\nsamples = 1\nvalue = [0, 1]\nclass = ham"] ;
526 -> 528 ;
529 [label="raw_mail_len <= 2236.0\ngini = 0.023\nsamples = 86\nvalue = [85, 1]\nclass = spam"] ;
525 -> 529 ;
530 [label="raw_body_count_spaces <= 290.0\ngini = 0.2449\nsamples = 7\nvalue = [6, 1]\nclass = spam"] ;
529 -> 530 ;
531 [label="gini = 0.0\nsamples = 6\nvalue = [6, 0]\nclass = spam"] ;
530 -> 531 ;
532 [label="gini = 0.0\nsamples = 1\nvalue = [0, 1]\nclass = ham"] ;
530 -> 532 ;
533 [label="gini = 0.0\nsamples = 79\nvalue = [79, 0]\nclass = spam"] ;
529 -> 533 ;
534 [label="recipient_count <= 1.5\ngini = 0.4398\nsamples = 49\nvalue = [16, 33]\nclass = ham"] ;
496 -> 534 ;
535 [label="spaces_over_len <= 0.2088\ngini = 0.1928\nsamples = 37\nvalue = [4, 33]\nclass = ham"] ;
534 -> 535 ;
536 [label="parts_count <= 2.5\ngini = 0.1078\nsamples = 35\nvalue = [2, 33]\nclass = ham"] ;
535 -> 536 ;
537 [label="gini = 0.0\nsamples = 32\nvalue = [0, 32]\nclass = ham"] ;
536 -> 537 ;
538 [label="of <= 6.5\ngini = 0.4444\nsamples = 3\nvalue = [2, 1]\nclass = spam"] ;
536 -> 538 ;
539 [label="gini = 0.0\nsamples = 2\nvalue = [2, 0]\nclass = spam"] ;
538 -> 539 ;
540 [label="gini = 0.0\nsamples = 1\nvalue = [0, 1]\nclass = ham"] ;
538 -> 540 ;
541 [label="gini = 0.0\nsamples = 2\nvalue = [2, 0]\nclass = spam"] ;
535 -> 541 ;
542 [label="gini = 0.0\nsamples = 12\nvalue = [12, 0]\nclass = spam"] ;
534 -> 542 ;
543 [label="headers_count <= 20.5\ngini = 0.4837\nsamples = 532\nvalue = [218, 314]\nclass = ham"] ;
495 -> 543 ;
544 [label="content_type <= 3.0\ngini = 0.4375\nsamples = 430\nvalue = [139, 291]\nclass = ham"] ;
543 -> 544 ;
545 [label="subject_length <= 29.0\ngini = 0.0928\nsamples = 41\nvalue = [39, 2]\nclass = spam"] ;
544 -> 545 ;
546 [label="gini = 0.0\nsamples = 2\nvalue = [0, 2]\nclass = ham"] ;
545 -> 546 ;
547 [label="gini = 0.0\nsamples = 39\nvalue = [39, 0]\nclass = spam"] ;
545 -> 547 ;
548 [label="recipient_count <= 1.5\ngini = 0.382\nsamples = 389\nvalue = [100, 289]\nclass = ham"] ;
544 -> 548 ;
549 [label="in <= 9.5\ngini = 0.3025\nsamples = 323\nvalue = [60, 263]\nclass = ham"] ;
548 -> 549 ;
550 [label="spaces_over_len <= 0.2363\ngini = 0.2407\nsamples = 293\nvalue = [41, 252]\nclass = ham"] ;
549 -> 550 ;
551 [label="headers_count <= 18.5\ngini = 0.2277\nsamples = 290\nvalue = [38, 252]\nclass = ham"] ;
550 -> 551 ;
552 [label="raw_mail_len <= 392.0\ngini = 0.1372\nsamples = 162\nvalue = [12, 150]\nclass = ham"] ;
551 -> 552 ;
553 [label="content_type <= 9.0\ngini = 0.4444\nsamples = 3\nvalue = [2, 1]\nclass = spam"] ;
552 -> 553 ;
554 [label="gini = 0.0\nsamples = 2\nvalue = [2, 0]\nclass = spam"] ;
553 -> 554 ;
555 [label="gini = 0.0\nsamples = 1\nvalue = [0, 1]\nclass = ham"] ;
553 -> 555 ;
556 [label="mailer <= 503.5\ngini = 0.1179\nsamples = 159\nvalue = [10, 149]\nclass = ham"] ;
552 -> 556 ;
557 [label="spell_error_count <= 1.5\ngini = 0.2449\nsamples = 49\nvalue = [7, 42]\nclass = ham"] ;
556 -> 557 ;
558 [label="gini = 0.0\nsamples = 1\nvalue = [1, 0]\nclass = spam"] ;
557 -> 558 ;
559 [label="spell_error_count <= 372.5\ngini = 0.2188\nsamples = 48\nvalue = [6, 42]\nclass = ham"] ;
557 -> 559 ;
560 [label="and <= 3.5\ngini = 0.1901\nsamples = 47\nvalue = [5, 42]\nclass = ham"] ;
559 -> 560 ;
561 [label="gini = 0.0\nsamples = 29\nvalue = [0, 29]\nclass = ham"] ;
560 -> 561 ;
562 [label="a <= 0.5\ngini = 0.4012\nsamples = 18\nvalue = [5, 13]\nclass = ham"] ;
560 -> 562 ;
563 [label="gini = 0.0\nsamples = 3\nvalue = [3, 0]\nclass = spam"] ;
562 -> 563 ;
564 [label="spaces_over_len <= 0.0791\ngini = 0.2311\nsamples = 15\nvalue = [2, 13]\nclass = ham"] ;
562 -> 564 ;
565 [label="gini = 0.0\nsamples = 1\nvalue = [1, 0]\nclass = spam"] ;
564 -> 565 ;
566 [label="gini = 0.1327\nsamples = 14\nvalue = [1, 13]\nclass = ham"] ;
564 -> 566 ;
567 [label="gini = 0.0\nsamples = 1\nvalue = [1, 0]\nclass = spam"] ;
559 -> 567 ;
568 [label="the <= 30.5\ngini = 0.0531\nsamples = 110\nvalue = [3, 107]\nclass = ham"] ;
556 -> 568 ;
569 [label="for <= 9.5\ngini = 0.0364\nsamples = 108\nvalue = [2, 106]\nclass = ham"] ;
568 -> 569 ;
570 [label="subject_length <= 30.5\ngini = 0.0192\nsamples = 103\nvalue = [1, 102]\nclass = ham"] ;
569 -> 570 ;
571 [label="the <= 16.0\ngini = 0.1528\nsamples = 12\nvalue = [1, 11]\nclass = ham"] ;
570 -> 571 ;
572 [label="gini = 0.0\nsamples = 11\nvalue = [0, 11]\nclass = ham"] ;
571 -> 572 ;
573 [label="gini = 0.0\nsamples = 1\nvalue = [1, 0]\nclass = spam"] ;
571 -> 573 ;
574 [label="gini = 0.0\nsamples = 91\nvalue = [0, 91]\nclass = ham"] ;
570 -> 574 ;
575 [label="subject_length <= 52.5\ngini = 0.32\nsamples = 5\nvalue = [1, 4]\nclass = ham"] ;
569 -> 575 ;
576 [label="gini = 0.0\nsamples = 4\nvalue = [0, 4]\nclass = ham"] ;
575 -> 576 ;
577 [label="gini = 0.0\nsamples = 1\nvalue = [1, 0]\nclass = spam"] ;
575 -> 577 ;
578 [label="for <= 4.5\ngini = 0.5\nsamples = 2\nvalue = [1, 1]\nclass = spam"] ;
568 -> 578 ;
579 [label="gini = 0.0\nsamples = 1\nvalue = [0, 1]\nclass = ham"] ;
578 -> 579 ;
580 [label="gini = 0.0\nsamples = 1\nvalue = [1, 0]\nclass = spam"] ;
578 -> 580 ;
581 [label="parts_count <= 2.5\ngini = 0.3237\nsamples = 128\nvalue = [26, 102]\nclass = ham"] ;
551 -> 581 ;
582 [label="mailer <= 1284.0\ngini = 0.2524\nsamples = 108\nvalue = [16, 92]\nclass = ham"] ;
581 -> 582 ;
583 [label="for <= 9.5\ngini = 0.12\nsamples = 78\nvalue = [5, 73]\nclass = ham"] ;
582 -> 583 ;
584 [label="spell_error_count <= 3.0\ngini = 0.0758\nsamples = 76\nvalue = [3, 73]\nclass = ham"] ;
583 -> 584 ;
585 [label="parts_count <= 1.5\ngini = 0.4082\nsamples = 7\nvalue = [2, 5]\nclass = ham"] ;
584 -> 585 ;
586 [label="gini = 0.0\nsamples = 2\nvalue = [2, 0]\nclass = spam"] ;
585 -> 586 ;
587 [label="gini = 0.0\nsamples = 5\nvalue = [0, 5]\nclass = ham"] ;
585 -> 587 ;
588 [label="in <= 6.5\ngini = 0.0286\nsamples = 69\nvalue = [1, 68]\nclass = ham"] ;
584 -> 588 ;
589 [label="gini = 0.0\nsamples = 63\nvalue = [0, 63]\nclass = ham"] ;
588 -> 589 ;
590 [label="of <= 9.5\ngini = 0.2778\nsamples = 6\nvalue = [1, 5]\nclass = ham"] ;
588 -> 590 ;
591 [label="gini = 0.0\nsamples = 1\nvalue = [1, 0]\nclass = spam"] ;
590 -> 591 ;
592 [label="gini = 0.0\nsamples = 5\nvalue = [0, 5]\nclass = ham"] ;
590 -> 592 ;
593 [label="gini = 0.0\nsamples = 2\nvalue = [2, 0]\nclass = spam"] ;
583 -> 593 ;
594 [label="in <= 2.5\ngini = 0.4644\nsamples = 30\nvalue = [11, 19]\nclass = ham"] ;
582 -> 594 ;
595 [label="subject_length <= 16.0\ngini = 0.2311\nsamples = 15\nvalue = [2, 13]\nclass = ham"] ;
594 -> 595 ;
596 [label="gini = 0.0\nsamples = 1\nvalue = [1, 0]\nclass = spam"] ;
595 -> 596 ;
597 [label="is_mulipart <= 0.5\ngini = 0.1327\nsamples = 14\nvalue = [1, 13]\nclass = ham"] ;
595 -> 597 ;
598 [label="gini = 0.0\nsamples = 10\nvalue = [0, 10]\nclass = ham"] ;
597 -> 598 ;
599 [label="a <= 2.0\ngini = 0.375\nsamples = 4\nvalue = [1, 3]\nclass = ham"] ;
597 -> 599 ;
600 [label="gini = 0.0\nsamples = 1\nvalue = [1, 0]\nclass = spam"] ;
599 -> 600 ;
601 [label="gini = 0.0\nsamples = 3\nvalue = [0, 3]\nclass = ham"] ;
599 -> 601 ;
602 [label="and <= 10.5\ngini = 0.48\nsamples = 15\nvalue = [9, 6]\nclass = spam"] ;
594 -> 602 ;
603 [label="spell_error_count <= 5.0\ngini = 0.18\nsamples = 10\nvalue = [9, 1]\nclass = spam"] ;
602 -> 603 ;
604 [label="gini = 0.0\nsamples = 1\nvalue = [0, 1]\nclass = ham"] ;
603 -> 604 ;
605 [label="gini = 0.0\nsamples = 9\nvalue = [9, 0]\nclass = spam"] ;
603 -> 605 ;
606 [label="gini = 0.0\nsamples = 5\nvalue = [0, 5]\nclass = ham"] ;
602 -> 606 ;
607 [label="spaces_over_len <= 0.1013\ngini = 0.5\nsamples = 20\nvalue = [10, 10]\nclass = spam"] ;
581 -> 607 ;
608 [label="a <= 0.5\ngini = 0.2975\nsamples = 11\nvalue = [2, 9]\nclass = ham"] ;
607 -> 608 ;
609 [label="gini = 0.0\nsamples = 1\nvalue = [1, 0]\nclass = spam"] ;
608 -> 609 ;
610 [label="subject_length <= 43.0\ngini = 0.18\nsamples = 10\nvalue = [1, 9]\nclass = ham"] ;
608 -> 610 ;
611 [label="gini = 0.0\nsamples = 8\nvalue = [0, 8]\nclass = ham"] ;
610 -> 611 ;
612 [label="raw_mail_len <= 1920.0\ngini = 0.5\nsamples = 2\nvalue = [1, 1]\nclass = spam"] ;
610 -> 612 ;
613 [label="gini = 0.0\nsamples = 1\nvalue = [0, 1]\nclass = ham"] ;
612 -> 613 ;
614 [label="gini = 0.0\nsamples = 1\nvalue = [1, 0]\nclass = spam"] ;
612 -> 614 ;
615 [label="of <= 15.0\ngini = 0.1975\nsamples = 9\nvalue = [8, 1]\nclass = spam"] ;
607 -> 615 ;
616 [label="gini = 0.0\nsamples = 8\nvalue = [8, 0]\nclass = spam"] ;
615 -> 616 ;
617 [label="gini = 0.0\nsamples = 1\nvalue = [0, 1]\nclass = ham"] ;
615 -> 617 ;
618 [label="gini = 0.0\nsamples = 3\nvalue = [3, 0]\nclass = spam"] ;
550 -> 618 ;
619 [label="and <= 23.5\ngini = 0.4644\nsamples = 30\nvalue = [19, 11]\nclass = spam"] ;
549 -> 619 ;
620 [label="uppercase_count <= 232.0\ngini = 0.1107\nsamples = 17\nvalue = [16, 1]\nclass = spam"] ;
619 -> 620 ;
621 [label="gini = 0.0\nsamples = 1\nvalue = [0, 1]\nclass = ham"] ;
620 -> 621 ;
622 [label="gini = 0.0\nsamples = 16\nvalue = [16, 0]\nclass = spam"] ;
620 -> 622 ;
623 [label="subject_length <= 29.5\ngini = 0.355\nsamples = 13\nvalue = [3, 10]\nclass = ham"] ;
619 -> 623 ;
624 [label="spell_error_count <= 156.0\ngini = 0.375\nsamples = 4\nvalue = [3, 1]\nclass = spam"] ;
623 -> 624 ;
625 [label="gini = 0.0\nsamples = 1\nvalue = [0, 1]\nclass = ham"] ;
624 -> 625 ;
626 [label="gini = 0.0\nsamples = 3\nvalue = [3, 0]\nclass = spam"] ;
624 -> 626 ;
627 [label="gini = 0.0\nsamples = 9\nvalue = [0, 9]\nclass = ham"] ;
623 -> 627 ;
628 [label="raw_body_count_spaces <= 85.5\ngini = 0.4775\nsamples = 66\nvalue = [40, 26]\nclass = spam"] ;
548 -> 628 ;
629 [label="recipient_count <= 31.5\ngini = 0.2934\nsamples = 28\nvalue = [5, 23]\nclass = ham"] ;
628 -> 629 ;
630 [label="spaces_over_len <= 0.1216\ngini = 0.2041\nsamples = 26\nvalue = [3, 23]\nclass = ham"] ;
629 -> 630 ;
631 [label="parts_count <= 2.5\ngini = 0.0799\nsamples = 24\nvalue = [1, 23]\nclass = ham"] ;
630 -> 631 ;
632 [label="gini = 0.0\nsamples = 23\nvalue = [0, 23]\nclass = ham"] ;
631 -> 632 ;
633 [label="gini = 0.0\nsamples = 1\nvalue = [1, 0]\nclass = spam"] ;
631 -> 633 ;
634 [label="gini = 0.0\nsamples = 2\nvalue = [2, 0]\nclass = spam"] ;
630 -> 634 ;
635 [label="gini = 0.0\nsamples = 2\nvalue = [2, 0]\nclass = spam"] ;
629 -> 635 ;
636 [label="content_transfer_encoding, <= 11.5\ngini = 0.1454\nsamples = 38\nvalue = [35, 3]\nclass = spam"] ;
628 -> 636 ;
637 [label="for <= 2.0\ngini = 0.4444\nsamples = 3\nvalue = [1, 2]\nclass = ham"] ;
636 -> 637 ;
638 [label="gini = 0.0\nsamples = 1\nvalue = [1, 0]\nclass = spam"] ;
637 -> 638 ;
639 [label="gini = 0.0\nsamples = 2\nvalue = [0, 2]\nclass = ham"] ;
637 -> 639 ;
640 [label="has_body <= 0.5\ngini = 0.0555\nsamples = 35\nvalue = [34, 1]\nclass = spam"] ;
636 -> 640 ;
641 [label="uppercase_count <= 289.0\ngini = 0.5\nsamples = 2\nvalue = [1, 1]\nclass = spam"] ;
640 -> 641 ;
642 [label="gini = 0.0\nsamples = 1\nvalue = [0, 1]\nclass = ham"] ;
641 -> 642 ;
643 [label="gini = 0.0\nsamples = 1\nvalue = [1, 0]\nclass = spam"] ;
641 -> 643 ;
644 [label="gini = 0.0\nsamples = 33\nvalue = [33, 0]\nclass = spam"] ;
640 -> 644 ;
645 [label="of <= 3.5\ngini = 0.3493\nsamples = 102\nvalue = [79, 23]\nclass = spam"] ;
543 -> 645 ;
646 [label="headers_count <= 23.5\ngini = 0.4824\nsamples = 32\nvalue = [13, 19]\nclass = ham"] ;
645 -> 646 ;
647 [label="spaces_over_len <= 0.1384\ngini = 0.3935\nsamples = 26\nvalue = [7, 19]\nclass = ham"] ;
646 -> 647 ;
648 [label="spaces_over_len <= 0.0194\ngini = 0.2355\nsamples = 22\nvalue = [3, 19]\nclass = ham"] ;
647 -> 648 ;
649 [label="gini = 0.0\nsamples = 3\nvalue = [3, 0]\nclass = spam"] ;
648 -> 649 ;
650 [label="gini = 0.0\nsamples = 19\nvalue = [0, 19]\nclass = ham"] ;
648 -> 650 ;
651 [label="gini = 0.0\nsamples = 4\nvalue = [4, 0]\nclass = spam"] ;
647 -> 651 ;
652 [label="gini = 0.0\nsamples = 6\nvalue = [6, 0]\nclass = spam"] ;
646 -> 652 ;
653 [label="content_transfer_encoding, <= 13.5\ngini = 0.1078\nsamples = 70\nvalue = [66, 4]\nclass = spam"] ;
645 -> 653 ;
654 [label="subject_length <= 37.5\ngini = 0.5\nsamples = 6\nvalue = [3, 3]\nclass = spam"] ;
653 -> 654 ;
655 [label="gini = 0.0\nsamples = 3\nvalue = [0, 3]\nclass = ham"] ;
654 -> 655 ;
656 [label="gini = 0.0\nsamples = 3\nvalue = [3, 0]\nclass = spam"] ;
654 -> 656 ;
657 [label="uppercase_count <= 2718.0\ngini = 0.0308\nsamples = 64\nvalue = [63, 1]\nclass = spam"] ;
653 -> 657 ;
658 [label="gini = 0.0\nsamples = 63\nvalue = [63, 0]\nclass = spam"] ;
657 -> 658 ;
659 [label="gini = 0.0\nsamples = 1\nvalue = [0, 1]\nclass = ham"] ;
657 -> 659 ;
660 [label="uppercase_count <= 739.0\ngini = 0.2504\nsamples = 954\nvalue = [814, 140]\nclass = spam"] ;
2 -> 660 ;
661 [label="subject_length <= 16.0\ngini = 0.1014\nsamples = 56\nvalue = [3, 53]\nclass = ham"] ;
660 -> 661 ;
662 [label="has_cc <= 0.5\ngini = 0.4444\nsamples = 3\nvalue = [2, 1]\nclass = spam"] ;
661 -> 662 ;
663 [label="gini = 0.0\nsamples = 2\nvalue = [2, 0]\nclass = spam"] ;
662 -> 663 ;
664 [label="gini = 0.0\nsamples = 1\nvalue = [0, 1]\nclass = ham"] ;
662 -> 664 ;
665 [label="raw_mail_len <= 19347.5\ngini = 0.037\nsamples = 53\nvalue = [1, 52]\nclass = ham"] ;
661 -> 665 ;
666 [label="in <= 3.0\ngini = 0.2778\nsamples = 6\nvalue = [1, 5]\nclass = ham"] ;
665 -> 666 ;
667 [label="gini = 0.0\nsamples = 1\nvalue = [1, 0]\nclass = spam"] ;
666 -> 667 ;
668 [label="gini = 0.0\nsamples = 5\nvalue = [0, 5]\nclass = ham"] ;
666 -> 668 ;
669 [label="gini = 0.0\nsamples = 47\nvalue = [0, 47]\nclass = ham"] ;
665 -> 669 ;
670 [label="content_type <= 6.5\ngini = 0.175\nsamples = 898\nvalue = [811, 87]\nclass = spam"] ;
660 -> 670 ;
671 [label="in <= 32.5\ngini = 0.4918\nsamples = 156\nvalue = [88, 68]\nclass = spam"] ;
670 -> 671 ;
672 [label="spaces_over_len <= 0.2076\ngini = 0.1362\nsamples = 68\nvalue = [5, 63]\nclass = ham"] ;
671 -> 672 ;
673 [label="subject_length <= 30.5\ngini = 0.0868\nsamples = 66\nvalue = [3, 63]\nclass = ham"] ;
672 -> 673 ;
674 [label="headers_count <= 14.0\ngini = 0.4898\nsamples = 7\nvalue = [3, 4]\nclass = ham"] ;
673 -> 674 ;
675 [label="gini = 0.0\nsamples = 2\nvalue = [2, 0]\nclass = spam"] ;
674 -> 675 ;
676 [label="raw_mail_len <= 22427.0\ngini = 0.32\nsamples = 5\nvalue = [1, 4]\nclass = ham"] ;
674 -> 676 ;
677 [label="gini = 0.0\nsamples = 1\nvalue = [1, 0]\nclass = spam"] ;
676 -> 677 ;
678 [label="gini = 0.0\nsamples = 4\nvalue = [0, 4]\nclass = ham"] ;
676 -> 678 ;
679 [label="gini = 0.0\nsamples = 59\nvalue = [0, 59]\nclass = ham"] ;
673 -> 679 ;
680 [label="gini = 0.0\nsamples = 2\nvalue = [2, 0]\nclass = spam"] ;
672 -> 680 ;
681 [label="spell_error_count <= 1438.0\ngini = 0.1072\nsamples = 88\nvalue = [83, 5]\nclass = spam"] ;
671 -> 681 ;
682 [label="for <= 18.5\ngini = 0.0681\nsamples = 85\nvalue = [82, 3]\nclass = spam"] ;
681 -> 682 ;
683 [label="uppercase_count <= 1519.0\ngini = 0.4444\nsamples = 6\nvalue = [4, 2]\nclass = spam"] ;
682 -> 683 ;
684 [label="gini = 0.0\nsamples = 4\nvalue = [4, 0]\nclass = spam"] ;
683 -> 684 ;
685 [label="gini = 0.0\nsamples = 2\nvalue = [0, 2]\nclass = ham"] ;
683 -> 685 ;
686 [label="raw_mail_len <= 44401.0\ngini = 0.025\nsamples = 79\nvalue = [78, 1]\nclass = spam"] ;
682 -> 686 ;
687 [label="gini = 0.0\nsamples = 76\nvalue = [76, 0]\nclass = spam"] ;
686 -> 687 ;
688 [label="of <= 111.0\ngini = 0.4444\nsamples = 3\nvalue = [2, 1]\nclass = spam"] ;
686 -> 688 ;
689 [label="gini = 0.0\nsamples = 1\nvalue = [0, 1]\nclass = ham"] ;
688 -> 689 ;
690 [label="gini = 0.0\nsamples = 2\nvalue = [2, 0]\nclass = spam"] ;
688 -> 690 ;
691 [label="raw_body_count_spaces <= 18653.5\ngini = 0.4444\nsamples = 3\nvalue = [1, 2]\nclass = ham"] ;
681 -> 691 ;
692 [label="gini = 0.0\nsamples = 2\nvalue = [0, 2]\nclass = ham"] ;
691 -> 692 ;
693 [label="gini = 0.0\nsamples = 1\nvalue = [1, 0]\nclass = spam"] ;
691 -> 693 ;
694 [label="spaces_over_len <= 0.2222\ngini = 0.0499\nsamples = 742\nvalue = [723, 19]\nclass = spam"] ;
670 -> 694 ;
695 [label="subject_length <= 127.0\ngini = 0.0424\nsamples = 738\nvalue = [722, 16]\nclass = spam"] ;
694 -> 695 ;
696 [label="content_type <= 7.5\ngini = 0.0348\nsamples = 733\nvalue = [720, 13]\nclass = spam"] ;
695 -> 696 ;
697 [label="uppercase_count <= 1495.0\ngini = 0.0129\nsamples = 617\nvalue = [613, 4]\nclass = spam"] ;
696 -> 697 ;
698 [label="of <= 16.0\ngini = 0.2449\nsamples = 7\nvalue = [6, 1]\nclass = spam"] ;
697 -> 698 ;
699 [label="gini = 0.0\nsamples = 1\nvalue = [0, 1]\nclass = ham"] ;
698 -> 699 ;
700 [label="gini = 0.0\nsamples = 6\nvalue = [6, 0]\nclass = spam"] ;
698 -> 700 ;
701 [label="headers_count <= 13.5\ngini = 0.0098\nsamples = 610\nvalue = [607, 3]\nclass = spam"] ;
697 -> 701 ;
702 [label="of <= 8.0\ngini = 0.142\nsamples = 13\nvalue = [12, 1]\nclass = spam"] ;
701 -> 702 ;
703 [label="gini = 0.0\nsamples = 12\nvalue = [12, 0]\nclass = spam"] ;
702 -> 703 ;
704 [label="gini = 0.0\nsamples = 1\nvalue = [0, 1]\nclass = ham"] ;
702 -> 704 ;
705 [label="headers_count <= 14.5\ngini = 0.0067\nsamples = 597\nvalue = [595, 2]\nclass = spam"] ;
701 -> 705 ;
706 [label="uppercase_count <= 18635.5\ngini = 0.0396\nsamples = 99\nvalue = [97, 2]\nclass = spam"] ;
705 -> 706 ;
707 [label="spell_error_count <= 3229.5\ngini = 0.2778\nsamples = 6\nvalue = [5, 1]\nclass = spam"] ;
706 -> 707 ;
708 [label="gini = 0.0\nsamples = 5\nvalue = [5, 0]\nclass = spam"] ;
707 -> 708 ;
709 [label="gini = 0.0\nsamples = 1\nvalue = [0, 1]\nclass = ham"] ;
707 -> 709 ;
710 [label="parts_count <= 5.5\ngini = 0.0213\nsamples = 93\nvalue = [92, 1]\nclass = spam"] ;
706 -> 710 ;
711 [label="gini = 0.0\nsamples = 86\nvalue = [86, 0]\nclass = spam"] ;
710 -> 711 ;
712 [label="raw_mail_len <= 81929.5\ngini = 0.2449\nsamples = 7\nvalue = [6, 1]\nclass = spam"] ;
710 -> 712 ;
713 [label="gini = 0.0\nsamples = 1\nvalue = [0, 1]\nclass = ham"] ;
712 -> 713 ;
714 [label="gini = 0.0\nsamples = 6\nvalue = [6, 0]\nclass = spam"] ;
712 -> 714 ;
715 [label="gini = 0.0\nsamples = 498\nvalue = [498, 0]\nclass = spam"] ;
705 -> 715 ;
716 [label="the <= 2.5\ngini = 0.1431\nsamples = 116\nvalue = [107, 9]\nclass = spam"] ;
696 -> 716 ;
717 [label="in <= 0.5\ngini = 0.2449\nsamples = 7\nvalue = [1, 6]\nclass = ham"] ;
716 -> 717 ;
718 [label="gini = 0.0\nsamples = 1\nvalue = [1, 0]\nclass = spam"] ;
717 -> 718 ;
719 [label="gini = 0.0\nsamples = 6\nvalue = [0, 6]\nclass = ham"] ;
717 -> 719 ;
720 [label="raw_body_count_spaces <= 6335.0\ngini = 0.0535\nsamples = 109\nvalue = [106, 3]\nclass = spam"] ;
716 -> 720 ;
721 [label="to <= 1.5\ngini = 0.0364\nsamples = 108\nvalue = [106, 2]\nclass = spam"] ;
720 -> 721 ;
722 [label="gini = 0.0\nsamples = 1\nvalue = [0, 1]\nclass = ham"] ;
721 -> 722 ;
723 [label="the <= 5.0\ngini = 0.0185\nsamples = 107\nvalue = [106, 1]\nclass = spam"] ;
721 -> 723 ;
724 [label="spell_error_count <= 1559.5\ngini = 0.4444\nsamples = 3\nvalue = [2, 1]\nclass = spam"] ;
723 -> 724 ;
725 [label="gini = 0.0\nsamples = 2\nvalue = [2, 0]\nclass = spam"] ;
724 -> 725 ;
726 [label="gini = 0.0\nsamples = 1\nvalue = [0, 1]\nclass = ham"] ;
724 -> 726 ;
727 [label="gini = 0.0\nsamples = 104\nvalue = [104, 0]\nclass = spam"] ;
723 -> 727 ;
728 [label="gini = 0.0\nsamples = 1\nvalue = [0, 1]\nclass = ham"] ;
720 -> 728 ;
729 [label="the <= 0.5\ngini = 0.48\nsamples = 5\nvalue = [2, 3]\nclass = ham"] ;
695 -> 729 ;
730 [label="gini = 0.0\nsamples = 3\nvalue = [0, 3]\nclass = ham"] ;
729 -> 730 ;
731 [label="gini = 0.0\nsamples = 2\nvalue = [2, 0]\nclass = spam"] ;
729 -> 731 ;
732 [label="and <= 174.5\ngini = 0.375\nsamples = 4\nvalue = [1, 3]\nclass = ham"] ;
694 -> 732 ;
733 [label="gini = 0.0\nsamples = 3\nvalue = [0, 3]\nclass = ham"] ;
732 -> 733 ;
734 [label="gini = 0.0\nsamples = 1\nvalue = [1, 0]\nclass = spam"] ;
732 -> 734 ;
735 [label="spaces_over_len <= 0.8015\ngini = 0.0209\nsamples = 16173\nvalue = [171, 16002]\nclass = ham"] ;
1 -> 735 ;
736 [label="a <= 19.5\ngini = 0.0182\nsamples = 16150\nvalue = [148, 16002]\nclass = ham"] ;
735 -> 736 ;
737 [label="headers_count <= 21.5\ngini = 0.0131\nsamples = 15875\nvalue = [105, 15770]\nclass = ham"] ;
736 -> 737 ;
738 [label="headers_count <= 18.5\ngini = 0.0116\nsamples = 15829\nvalue = [92, 15737]\nclass = ham"] ;
737 -> 738 ;
739 [label="the <= 50.5\ngini = 0.008\nsamples = 15385\nvalue = [62, 15323]\nclass = ham"] ;
738 -> 739 ;
740 [label="to <= 8.5\ngini = 0.0071\nsamples = 15335\nvalue = [55, 15280]\nclass = ham"] ;
739 -> 740 ;
741 [label="the <= 18.5\ngini = 0.0039\nsamples = 14185\nvalue = [28, 14157]\nclass = ham"] ;
740 -> 741 ;
742 [label="spell_error_count <= 18.5\ngini = 0.0037\nsamples = 14153\nvalue = [26, 14127]\nclass = ham"] ;
741 -> 742 ;
743 [label="content_type <= 3.0\ngini = 0.0279\nsamples = 635\nvalue = [9, 626]\nclass = ham"] ;
742 -> 743 ;
744 [label="gini = 0.0\nsamples = 4\nvalue = [4, 0]\nclass = spam"] ;
743 -> 744 ;
745 [label="uppercase_count <= 195.5\ngini = 0.0157\nsamples = 631\nvalue = [5, 626]\nclass = ham"] ;
743 -> 745 ;
746 [label="recipient_count <= 14.5\ngini = 0.0064\nsamples = 626\nvalue = [2, 624]\nclass = ham"] ;
745 -> 746 ;
747 [label="content_transfer_encoding, <= 19.5\ngini = 0.0032\nsamples = 625\nvalue = [1, 624]\nclass = ham"] ;
746 -> 747 ;
748 [label="gini = 0.0\nsamples = 590\nvalue = [0, 590]\nclass = ham"] ;
747 -> 748 ;
749 [label="subject_length <= 0.5\ngini = 0.0555\nsamples = 35\nvalue = [1, 34]\nclass = ham"] ;
747 -> 749 ;
750 [label="gini = 0.0\nsamples = 1\nvalue = [1, 0]\nclass = spam"] ;
749 -> 750 ;
751 [label="gini = 0.0\nsamples = 34\nvalue = [0, 34]\nclass = ham"] ;
749 -> 751 ;
752 [label="gini = 0.0\nsamples = 1\nvalue = [1, 0]\nclass = spam"] ;
746 -> 752 ;
753 [label="spaces_over_len <= 0.0842\ngini = 0.48\nsamples = 5\nvalue = [3, 2]\nclass = spam"] ;
745 -> 753 ;
754 [label="gini = 0.0\nsamples = 2\nvalue = [0, 2]\nclass = ham"] ;
753 -> 754 ;
755 [label="gini = 0.0\nsamples = 3\nvalue = [3, 0]\nclass = spam"] ;
753 -> 755 ;
756 [label="mailer <= 355.0\ngini = 0.0025\nsamples = 13518\nvalue = [17, 13501]\nclass = ham"] ;
742 -> 756 ;
757 [label="mailer <= 322.5\ngini = 0.0383\nsamples = 307\nvalue = [6, 301]\nclass = ham"] ;
756 -> 757 ;
758 [label="the <= 2.5\ngini = 0.026\nsamples = 304\nvalue = [4, 300]\nclass = ham"] ;
757 -> 758 ;
759 [label="uppercase_count <= 24.0\ngini = 0.0069\nsamples = 288\nvalue = [1, 287]\nclass = ham"] ;
758 -> 759 ;
760 [label="uppercase_count <= 17.5\ngini = 0.2188\nsamples = 8\nvalue = [1, 7]\nclass = ham"] ;
759 -> 760 ;
761 [label="gini = 0.0\nsamples = 6\nvalue = [0, 6]\nclass = ham"] ;
760 -> 761 ;
762 [label="mailer <= 174.5\ngini = 0.5\nsamples = 2\nvalue = [1, 1]\nclass = spam"] ;
760 -> 762 ;
763 [label="gini = 0.0\nsamples = 1\nvalue = [0, 1]\nclass = ham"] ;
762 -> 763 ;
764 [label="gini = 0.0\nsamples = 1\nvalue = [1, 0]\nclass = spam"] ;
762 -> 764 ;
765 [label="gini = 0.0\nsamples = 280\nvalue = [0, 280]\nclass = ham"] ;
759 -> 765 ;
766 [label="raw_body_count_spaces <= 138.0\ngini = 0.3047\nsamples = 16\nvalue = [3, 13]\nclass = ham"] ;
758 -> 766 ;
767 [label="gini = 0.0\nsamples = 3\nvalue = [3, 0]\nclass = spam"] ;
766 -> 767 ;
768 [label="gini = 0.0\nsamples = 13\nvalue = [0, 13]\nclass = ham"] ;
766 -> 768 ;
769 [label="in <= 1.5\ngini = 0.4444\nsamples = 3\nvalue = [2, 1]\nclass = spam"] ;
757 -> 769 ;
770 [label="gini = 0.0\nsamples = 1\nvalue = [0, 1]\nclass = ham"] ;
769 -> 770 ;
771 [label="gini = 0.0\nsamples = 2\nvalue = [2, 0]\nclass = spam"] ;
769 -> 771 ;
772 [label="of <= 5.5\ngini = 0.0017\nsamples = 13211\nvalue = [11, 13200]\nclass = ham"] ;
756 -> 772 ;
773 [label="spell_error_count <= 52.5\ngini = 0.0009\nsamples = 12682\nvalue = [6, 12676]\nclass = ham"] ;
772 -> 773 ;
774 [label="uppercase_count <= 344.5\ngini = 0.0033\nsamples = 3658\nvalue = [6, 3652]\nclass = ham"] ;
773 -> 774 ;
775 [label="spaces_over_len <= 0.1135\ngini = 0.0022\nsamples = 3646\nvalue = [4, 3642]\nclass = ham"] ;
774 -> 775 ;
776 [label="gini = 0.0\nsamples = 3182\nvalue = [0, 3182]\nclass = ham"] ;
775 -> 776 ;
777 [label="spaces_over_len <= 0.1136\ngini = 0.0171\nsamples = 464\nvalue = [4, 460]\nclass = ham"] ;
775 -> 777 ;
778 [label="gini = 0.0\nsamples = 1\nvalue = [1, 0]\nclass = spam"] ;
777 -> 778 ;
779 [label="spell_error_count <= 51.5\ngini = 0.0129\nsamples = 463\nvalue = [3, 460]\nclass = ham"] ;
777 -> 779 ;
780 [label="has_link <= 0.5\ngini = 0.0087\nsamples = 457\nvalue = [2, 455]\nclass = ham"] ;
779 -> 780 ;
781 [label="gini = 0.1172\nsamples = 16\nvalue = [1, 15]\nclass = ham"] ;
780 -> 781 ;
782 [label="gini = 0.0045\nsamples = 441\nvalue = [1, 440]\nclass = ham"] ;
780 -> 782 ;
783 [label="raw_body_count_spaces <= 154.5\ngini = 0.2778\nsamples = 6\nvalue = [1, 5]\nclass = ham"] ;
779 -> 783 ;
784 [label="gini = 0.0\nsamples = 1\nvalue = [1, 0]\nclass = spam"] ;
783 -> 784 ;
785 [label="gini = 0.0\nsamples = 5\nvalue = [0, 5]\nclass = ham"] ;
783 -> 785 ;
786 [label="of <= 2.5\ngini = 0.2778\nsamples = 12\nvalue = [2, 10]\nclass = ham"] ;
774 -> 786 ;
787 [label="gini = 0.0\nsamples = 9\nvalue = [0, 9]\nclass = ham"] ;
786 -> 787 ;
788 [label="raw_mail_len <= 2964.0\ngini = 0.4444\nsamples = 3\nvalue = [2, 1]\nclass = spam"] ;
786 -> 788 ;
789 [label="gini = 0.0\nsamples = 2\nvalue = [2, 0]\nclass = spam"] ;
788 -> 789 ;
790 [label="gini = 0.0\nsamples = 1\nvalue = [0, 1]\nclass = ham"] ;
788 -> 790 ;
791 [label="gini = 0.0\nsamples = 9024\nvalue = [0, 9024]\nclass = ham"] ;
773 -> 791 ;
792 [label="subject_length <= 0.5\ngini = 0.0187\nsamples = 529\nvalue = [5, 524]\nclass = ham"] ;
772 -> 792 ;
793 [label="gini = 0.0\nsamples = 1\nvalue = [1, 0]\nclass = spam"] ;
792 -> 793 ;
794 [label="uppercase_count <= 1289.5\ngini = 0.015\nsamples = 528\nvalue = [4, 524]\nclass = ham"] ;
792 -> 794 ;
795 [label="has_body <= 0.5\ngini = 0.0077\nsamples = 518\nvalue = [2, 516]\nclass = ham"] ;
794 -> 795 ;
796 [label="uppercase_count <= 149.5\ngini = 0.1244\nsamples = 30\nvalue = [2, 28]\nclass = ham"] ;
795 -> 796 ;
797 [label="gini = 0.0\nsamples = 26\nvalue = [0, 26]\nclass = ham"] ;
796 -> 797 ;
798 [label="raw_mail_len <= 4462.0\ngini = 0.5\nsamples = 4\nvalue = [2, 2]\nclass = spam"] ;
796 -> 798 ;
799 [label="gini = 0.0\nsamples = 2\nvalue = [2, 0]\nclass = spam"] ;
798 -> 799 ;
800 [label="gini = 0.0\nsamples = 2\nvalue = [0, 2]\nclass = ham"] ;
798 -> 800 ;
801 [label="gini = 0.0\nsamples = 488\nvalue = [0, 488]\nclass = ham"] ;
795 -> 801 ;
802 [label="in <= 3.0\ngini = 0.32\nsamples = 10\nvalue = [2, 8]\nclass = ham"] ;
794 -> 802 ;
803 [label="gini = 0.0\nsamples = 2\nvalue = [2, 0]\nclass = spam"] ;
802 -> 803 ;
804 [label="gini = 0.0\nsamples = 8\nvalue = [0, 8]\nclass = ham"] ;
802 -> 804 ;
805 [label="and <= 3.5\ngini = 0.1172\nsamples = 32\nvalue = [2, 30]\nclass = ham"] ;
741 -> 805 ;
806 [label="gini = 0.0\nsamples = 1\nvalue = [1, 0]\nclass = spam"] ;
805 -> 806 ;
807 [label="has_body <= 0.5\ngini = 0.0624\nsamples = 31\nvalue = [1, 30]\nclass = ham"] ;
805 -> 807 ;
808 [label="gini = 0.0\nsamples = 1\nvalue = [1, 0]\nclass = spam"] ;
807 -> 808 ;
809 [label="gini = 0.0\nsamples = 30\nvalue = [0, 30]\nclass = ham"] ;
807 -> 809 ;
810 [label="headers_count <= 13.5\ngini = 0.0459\nsamples = 1150\nvalue = [27, 1123]\nclass = ham"] ;
740 -> 810 ;
811 [label="gini = 0.0\nsamples = 937\nvalue = [0, 937]\nclass = ham"] ;
810 -> 811 ;
812 [label="content_type <= 6.5\ngini = 0.2214\nsamples = 213\nvalue = [27, 186]\nclass = ham"] ;
810 -> 812 ;
813 [label="gini = 0.0\nsamples = 97\nvalue = [0, 97]\nclass = ham"] ;
812 -> 813 ;
814 [label="spell_error_count <= 264.5\ngini = 0.3572\nsamples = 116\nvalue = [27, 89]\nclass = ham"] ;
812 -> 814 ;
815 [label="subject_length <= 7.5\ngini = 0.1928\nsamples = 74\nvalue = [8, 66]\nclass = ham"] ;
814 -> 815 ;
816 [label="gini = 0.0\nsamples = 1\nvalue = [1, 0]\nclass = spam"] ;
815 -> 816 ;
817 [label="in <= 0.5\ngini = 0.1734\nsamples = 73\nvalue = [7, 66]\nclass = ham"] ;
815 -> 817 ;
818 [label="the <= 5.5\ngini = 0.5\nsamples = 4\nvalue = [2, 2]\nclass = spam"] ;
817 -> 818 ;
819 [label="gini = 0.0\nsamples = 2\nvalue = [0, 2]\nclass = ham"] ;
818 -> 819 ;
820 [label="gini = 0.0\nsamples = 2\nvalue = [2, 0]\nclass = spam"] ;
818 -> 820 ;
821 [label="the <= 19.5\ngini = 0.1344\nsamples = 69\nvalue = [5, 64]\nclass = ham"] ;
817 -> 821 ;
822 [label="in <= 7.5\ngini = 0.0357\nsamples = 55\nvalue = [1, 54]\nclass = ham"] ;
821 -> 822 ;
823 [label="gini = 0.0\nsamples = 50\nvalue = [0, 50]\nclass = ham"] ;
822 -> 823 ;
824 [label="spaces_over_len <= 0.1023\ngini = 0.32\nsamples = 5\nvalue = [1, 4]\nclass = ham"] ;
822 -> 824 ;
825 [label="gini = 0.0\nsamples = 1\nvalue = [1, 0]\nclass = spam"] ;
824 -> 825 ;
826 [label="gini = 0.0\nsamples = 4\nvalue = [0, 4]\nclass = ham"] ;
824 -> 826 ;
827 [label="and <= 15.5\ngini = 0.4082\nsamples = 14\nvalue = [4, 10]\nclass = ham"] ;
821 -> 827 ;
828 [label="headers_count <= 15.0\ngini = 0.32\nsamples = 5\nvalue = [4, 1]\nclass = spam"] ;
827 -> 828 ;
829 [label="gini = 0.0\nsamples = 1\nvalue = [0, 1]\nclass = ham"] ;
828 -> 829 ;
830 [label="gini = 0.0\nsamples = 4\nvalue = [4, 0]\nclass = spam"] ;
828 -> 830 ;
831 [label="gini = 0.0\nsamples = 9\nvalue = [0, 9]\nclass = ham"] ;
827 -> 831 ;
832 [label="mailer <= 312.5\ngini = 0.4955\nsamples = 42\nvalue = [19, 23]\nclass = ham"] ;
814 -> 832 ;
833 [label="gini = 0.0\nsamples = 8\nvalue = [0, 8]\nclass = ham"] ;
832 -> 833 ;
834 [label="the <= 19.0\ngini = 0.4931\nsamples = 34\nvalue = [19, 15]\nclass = spam"] ;
832 -> 834 ;
835 [label="has_dollar <= 0.5\ngini = 0.4628\nsamples = 22\nvalue = [8, 14]\nclass = ham"] ;
834 -> 835 ;
836 [label="for <= 4.5\ngini = 0.4734\nsamples = 13\nvalue = [8, 5]\nclass = spam"] ;
835 -> 836 ;
837 [label="uppercase_count <= 3314.0\ngini = 0.2778\nsamples = 6\nvalue = [1, 5]\nclass = ham"] ;
836 -> 837 ;
838 [label="gini = 0.0\nsamples = 5\nvalue = [0, 5]\nclass = ham"] ;
837 -> 838 ;
839 [label="gini = 0.0\nsamples = 1\nvalue = [1, 0]\nclass = spam"] ;
837 -> 839 ;
840 [label="gini = 0.0\nsamples = 7\nvalue = [7, 0]\nclass = spam"] ;
836 -> 840 ;
841 [label="gini = 0.0\nsamples = 9\nvalue = [0, 9]\nclass = ham"] ;
835 -> 841 ;
842 [label="spaces_over_len <= 0.1192\ngini = 0.1528\nsamples = 12\nvalue = [11, 1]\nclass = spam"] ;
834 -> 842 ;
843 [label="gini = 0.0\nsamples = 11\nvalue = [11, 0]\nclass = spam"] ;
842 -> 843 ;
844 [label="gini = 0.0\nsamples = 1\nvalue = [0, 1]\nclass = ham"] ;
842 -> 844 ;
845 [label="spaces_over_len <= 0.0966\ngini = 0.2408\nsamples = 50\nvalue = [7, 43]\nclass = ham"] ;
739 -> 845 ;
846 [label="gini = 0.0\nsamples = 7\nvalue = [7, 0]\nclass = spam"] ;
845 -> 846 ;
847 [label="gini = 0.0\nsamples = 43\nvalue = [0, 43]\nclass = ham"] ;
845 -> 847 ;
848 [label="spell_error_count <= 23.5\ngini = 0.126\nsamples = 444\nvalue = [30, 414]\nclass = ham"] ;
738 -> 848 ;
849 [label="is_mulipart <= 0.5\ngini = 0.4444\nsamples = 27\nvalue = [18, 9]\nclass = spam"] ;
848 -> 849 ;
850 [label="gini = 0.0\nsamples = 9\nvalue = [0, 9]\nclass = ham"] ;
849 -> 850 ;
851 [label="gini = 0.0\nsamples = 18\nvalue = [18, 0]\nclass = spam"] ;
849 -> 851 ;
852 [label="has_cc <= 0.5\ngini = 0.0559\nsamples = 417\nvalue = [12, 405]\nclass = ham"] ;
848 -> 852 ;
853 [label="to <= 17.0\ngini = 0.0244\nsamples = 405\nvalue = [5, 400]\nclass = ham"] ;
852 -> 853 ;
854 [label="and <= 5.5\ngini = 0.0149\nsamples = 399\nvalue = [3, 396]\nclass = ham"] ;
853 -> 854 ;
855 [label="gini = 0.0\nsamples = 353\nvalue = [0, 353]\nclass = ham"] ;
854 -> 855 ;
856 [label="uppercase_count <= 244.0\ngini = 0.1219\nsamples = 46\nvalue = [3, 43]\nclass = ham"] ;
854 -> 856 ;
857 [label="spaces_over_len <= 0.1381\ngini = 0.4444\nsamples = 3\nvalue = [2, 1]\nclass = spam"] ;
856 -> 857 ;
858 [label="gini = 0.0\nsamples = 2\nvalue = [2, 0]\nclass = spam"] ;
857 -> 858 ;
859 [label="gini = 0.0\nsamples = 1\nvalue = [0, 1]\nclass = ham"] ;
857 -> 859 ;
860 [label="subject_length <= 67.0\ngini = 0.0454\nsamples = 43\nvalue = [1, 42]\nclass = ham"] ;
856 -> 860 ;
861 [label="gini = 0.0\nsamples = 39\nvalue = [0, 39]\nclass = ham"] ;
860 -> 861 ;
862 [label="subject_length <= 85.5\ngini = 0.375\nsamples = 4\nvalue = [1, 3]\nclass = ham"] ;
860 -> 862 ;
863 [label="gini = 0.0\nsamples = 1\nvalue = [1, 0]\nclass = spam"] ;
862 -> 863 ;
864 [label="gini = 0.0\nsamples = 3\nvalue = [0, 3]\nclass = ham"] ;
862 -> 864 ;
865 [label="in <= 11.5\ngini = 0.4444\nsamples = 6\nvalue = [2, 4]\nclass = ham"] ;
853 -> 865 ;
866 [label="gini = 0.0\nsamples = 2\nvalue = [2, 0]\nclass = spam"] ;
865 -> 866 ;
867 [label="gini = 0.0\nsamples = 4\nvalue = [0, 4]\nclass = ham"] ;
865 -> 867 ;
868 [label="spell_error_count <= 186.0\ngini = 0.4861\nsamples = 12\nvalue = [7, 5]\nclass = spam"] ;
852 -> 868 ;
869 [label="spell_error_count <= 44.0\ngini = 0.2778\nsamples = 6\nvalue = [1, 5]\nclass = ham"] ;
868 -> 869 ;
870 [label="gini = 0.0\nsamples = 1\nvalue = [1, 0]\nclass = spam"] ;
869 -> 870 ;
871 [label="gini = 0.0\nsamples = 5\nvalue = [0, 5]\nclass = ham"] ;
869 -> 871 ;
872 [label="gini = 0.0\nsamples = 6\nvalue = [6, 0]\nclass = spam"] ;
868 -> 872 ;
873 [label="mailer <= 294.5\ngini = 0.4055\nsamples = 46\nvalue = [13, 33]\nclass = ham"] ;
737 -> 873 ;
874 [label="gini = 0.0\nsamples = 7\nvalue = [7, 0]\nclass = spam"] ;
873 -> 874 ;
875 [label="mailer <= 1336.5\ngini = 0.2604\nsamples = 39\nvalue = [6, 33]\nclass = ham"] ;
873 -> 875 ;
876 [label="recipient_count <= 5.5\ngini = 0.0666\nsamples = 29\nvalue = [1, 28]\nclass = ham"] ;
875 -> 876 ;
877 [label="gini = 0.0\nsamples = 28\nvalue = [0, 28]\nclass = ham"] ;
876 -> 877 ;
878 [label="gini = 0.0\nsamples = 1\nvalue = [1, 0]\nclass = spam"] ;
876 -> 878 ;
879 [label="and <= 3.5\ngini = 0.5\nsamples = 10\nvalue = [5, 5]\nclass = spam"] ;
875 -> 879 ;
880 [label="gini = 0.0\nsamples = 5\nvalue = [0, 5]\nclass = ham"] ;
879 -> 880 ;
881 [label="gini = 0.0\nsamples = 5\nvalue = [5, 0]\nclass = spam"] ;
879 -> 881 ;
882 [label="uppercase_count <= 698.5\ngini = 0.2638\nsamples = 275\nvalue = [43, 232]\nclass = ham"] ;
736 -> 882 ;
883 [label="gini = 0.0\nsamples = 206\nvalue = [0, 206]\nclass = ham"] ;
882 -> 883 ;
884 [label="mailer <= 1141.0\ngini = 0.4696\nsamples = 69\nvalue = [43, 26]\nclass = spam"] ;
882 -> 884 ;
885 [label="spaces_over_len <= 0.071\ngini = 0.2188\nsamples = 24\nvalue = [3, 21]\nclass = ham"] ;
884 -> 885 ;
886 [label="gini = 0.0\nsamples = 3\nvalue = [3, 0]\nclass = spam"] ;
885 -> 886 ;
887 [label="gini = 0.0\nsamples = 21\nvalue = [0, 21]\nclass = ham"] ;
885 -> 887 ;
888 [label="of <= 19.0\ngini = 0.1975\nsamples = 45\nvalue = [40, 5]\nclass = spam"] ;
884 -> 888 ;
889 [label="gini = 0.0\nsamples = 3\nvalue = [0, 3]\nclass = ham"] ;
888 -> 889 ;
890 [label="headers_count <= 13.0\ngini = 0.0907\nsamples = 42\nvalue = [40, 2]\nclass = spam"] ;
888 -> 890 ;
891 [label="gini = 0.0\nsamples = 1\nvalue = [0, 1]\nclass = ham"] ;
890 -> 891 ;
892 [label="spaces_over_len <= 0.1831\ngini = 0.0476\nsamples = 41\nvalue = [40, 1]\nclass = spam"] ;
890 -> 892 ;
893 [label="gini = 0.0\nsamples = 40\nvalue = [40, 0]\nclass = spam"] ;
892 -> 893 ;
894 [label="gini = 0.0\nsamples = 1\nvalue = [0, 1]\nclass = ham"] ;
892 -> 894 ;
895 [label="gini = 0.0\nsamples = 23\nvalue = [23, 0]\nclass = spam"] ;
735 -> 895 ;
896 [label="recipient_count <= 1.5\ngini = 0.3057\nsamples = 29314\nvalue = [23795, 5519]\nclass = spam"] ;
0 -> 896 [labeldistance=2.5, labelangle=-45, headlabel="False"] ;
897 [label="uppercase_count <= 0.5\ngini = 0.4979\nsamples = 10647\nvalue = [5665, 4982]\nclass = spam"] ;
896 -> 897 ;
898 [label="mailer <= 1329.5\ngini = 0.2862\nsamples = 4468\nvalue = [3695, 773]\nclass = spam"] ;
897 -> 898 ;
899 [label="headers_count <= 17.5\ngini = 0.0377\nsamples = 521\nvalue = [10, 511]\nclass = ham"] ;
898 -> 899 ;
900 [label="spaces_over_len <= 0.2927\ngini = 0.0155\nsamples = 511\nvalue = [4, 507]\nclass = ham"] ;
899 -> 900 ;
901 [label="subject_length <= 4.5\ngini = 0.0117\nsamples = 510\nvalue = [3, 507]\nclass = ham"] ;
900 -> 901 ;
902 [label="headers_count <= 14.5\ngini = 0.2778\nsamples = 12\nvalue = [2, 10]\nclass = ham"] ;
901 -> 902 ;
903 [label="gini = 0.0\nsamples = 10\nvalue = [0, 10]\nclass = ham"] ;
902 -> 903 ;
904 [label="gini = 0.0\nsamples = 2\nvalue = [2, 0]\nclass = spam"] ;
902 -> 904 ;
905 [label="headers_count <= 15.5\ngini = 0.004\nsamples = 498\nvalue = [1, 497]\nclass = ham"] ;
901 -> 905 ;
906 [label="gini = 0.0\nsamples = 466\nvalue = [0, 466]\nclass = ham"] ;
905 -> 906 ;
907 [label="content_transfer_encoding, <= 13.5\ngini = 0.0605\nsamples = 32\nvalue = [1, 31]\nclass = ham"] ;
905 -> 907 ;
908 [label="gini = 0.0\nsamples = 30\nvalue = [0, 30]\nclass = ham"] ;
907 -> 908 ;
909 [label="in <= 3.0\ngini = 0.5\nsamples = 2\nvalue = [1, 1]\nclass = spam"] ;
907 -> 909 ;
910 [label="gini = 0.0\nsamples = 1\nvalue = [1, 0]\nclass = spam"] ;
909 -> 910 ;
911 [label="gini = 0.0\nsamples = 1\nvalue = [0, 1]\nclass = ham"] ;
909 -> 911 ;
912 [label="gini = 0.0\nsamples = 1\nvalue = [1, 0]\nclass = spam"] ;
900 -> 912 ;
913 [label="mailer <= 858.0\ngini = 0.48\nsamples = 10\nvalue = [6, 4]\nclass = spam"] ;
899 -> 913 ;
914 [label="gini = 0.0\nsamples = 6\nvalue = [6, 0]\nclass = spam"] ;
913 -> 914 ;
915 [label="gini = 0.0\nsamples = 4\nvalue = [0, 4]\nclass = ham"] ;
913 -> 915 ;
916 [label="headers_count <= 12.5\ngini = 0.1239\nsamples = 3947\nvalue = [3685, 262]\nclass = spam"] ;
898 -> 916 ;
917 [label="gini = 0.0\nsamples = 156\nvalue = [0, 156]\nclass = ham"] ;
916 -> 917 ;
918 [label="headers_count <= 14.5\ngini = 0.0544\nsamples = 3791\nvalue = [3685, 106]\nclass = spam"] ;
916 -> 918 ;
919 [label="has_non_english_chars <= 0.5\ngini = 0.0354\nsamples = 3716\nvalue = [3649, 67]\nclass = spam"] ;
918 -> 919 ;
920 [label="raw_mail_len <= 3.0\ngini = 0.0323\nsamples = 3710\nvalue = [3649, 61]\nclass = spam"] ;
919 -> 920 ;
921 [label="gini = 0.0\nsamples = 5\nvalue = [0, 5]\nclass = ham"] ;
920 -> 921 ;
922 [label="to <= 16.5\ngini = 0.0298\nsamples = 3705\nvalue = [3649, 56]\nclass = spam"] ;
920 -> 922 ;
923 [label="headers_count <= 13.5\ngini = 0.0152\nsamples = 3393\nvalue = [3367, 26]\nclass = spam"] ;
922 -> 923 ;
924 [label="recipient_count <= 0.5\ngini = 0.0889\nsamples = 236\nvalue = [225, 11]\nclass = spam"] ;
923 -> 924 ;
925 [label="gini = 0.0\nsamples = 225\nvalue = [225, 0]\nclass = spam"] ;
924 -> 925 ;
926 [label="gini = 0.0\nsamples = 11\nvalue = [0, 11]\nclass = ham"] ;
924 -> 926 ;
927 [label="has_link <= 0.5\ngini = 0.0095\nsamples = 3157\nvalue = [3142, 15]\nclass = spam"] ;
923 -> 927 ;
928 [label="in <= 3.5\ngini = 0.0015\nsamples = 2634\nvalue = [2632, 2]\nclass = spam"] ;
927 -> 928 ;
929 [label="gini = 0.0\nsamples = 2194\nvalue = [2194, 0]\nclass = spam"] ;
928 -> 929 ;
930 [label="and <= 0.5\ngini = 0.009\nsamples = 440\nvalue = [438, 2]\nclass = spam"] ;
928 -> 930 ;
931 [label="content_transfer_encoding, <= 11.5\ngini = 0.1327\nsamples = 14\nvalue = [13, 1]\nclass = spam"] ;
930 -> 931 ;
932 [label="gini = 0.0\nsamples = 13\nvalue = [13, 0]\nclass = spam"] ;
931 -> 932 ;
933 [label="gini = 0.0\nsamples = 1\nvalue = [0, 1]\nclass = ham"] ;
931 -> 933 ;
934 [label="spaces_over_len <= 0.1385\ngini = 0.0047\nsamples = 426\nvalue = [425, 1]\nclass = spam"] ;
930 -> 934 ;
935 [label="spaces_over_len <= 0.1384\ngini = 0.022\nsamples = 90\nvalue = [89, 1]\nclass = spam"] ;
934 -> 935 ;
936 [label="gini = 0.0\nsamples = 89\nvalue = [89, 0]\nclass = spam"] ;
935 -> 936 ;
937 [label="gini = 0.0\nsamples = 1\nvalue = [0, 1]\nclass = ham"] ;
935 -> 937 ;
938 [label="gini = 0.0\nsamples = 336\nvalue = [336, 0]\nclass = spam"] ;
934 -> 938 ;
939 [label="spaces_over_len <= 0.1645\ngini = 0.0485\nsamples = 523\nvalue = [510, 13]\nclass = spam"] ;
927 -> 939 ;
940 [label="the <= 1.5\ngini = 0.0145\nsamples = 410\nvalue = [407, 3]\nclass = spam"] ;
939 -> 940 ;
941 [label="and <= 6.5\ngini = 0.0508\nsamples = 115\nvalue = [112, 3]\nclass = spam"] ;
940 -> 941 ;
942 [label="has_dollar <= 0.5\ngini = 0.0175\nsamples = 113\nvalue = [112, 1]\nclass = spam"] ;
941 -> 942 ;
943 [label="gini = 0.0\nsamples = 109\nvalue = [109, 0]\nclass = spam"] ;
942 -> 943 ;
944 [label="spell_error_count <= 12.5\ngini = 0.375\nsamples = 4\nvalue = [3, 1]\nclass = spam"] ;
942 -> 944 ;
945 [label="gini = 0.0\nsamples = 3\nvalue = [3, 0]\nclass = spam"] ;
944 -> 945 ;
946 [label="gini = 0.0\nsamples = 1\nvalue = [0, 1]\nclass = ham"] ;
944 -> 946 ;
947 [label="gini = 0.0\nsamples = 2\nvalue = [0, 2]\nclass = ham"] ;
941 -> 947 ;
948 [label="gini = 0.0\nsamples = 295\nvalue = [295, 0]\nclass = spam"] ;
940 -> 948 ;
949 [label="and <= 2.5\ngini = 0.1613\nsamples = 113\nvalue = [103, 10]\nclass = spam"] ;
939 -> 949 ;
950 [label="gini = 0.0\nsamples = 79\nvalue = [79, 0]\nclass = spam"] ;
949 -> 950 ;
951 [label="the <= 6.0\ngini = 0.4152\nsamples = 34\nvalue = [24, 10]\nclass = spam"] ;
949 -> 951 ;
952 [label="to <= 3.5\ngini = 0.4938\nsamples = 18\nvalue = [8, 10]\nclass = ham"] ;
951 -> 952 ;
953 [label="gini = 0.0\nsamples = 6\nvalue = [0, 6]\nclass = ham"] ;
952 -> 953 ;
954 [label="and <= 6.5\ngini = 0.4444\nsamples = 12\nvalue = [8, 4]\nclass = spam"] ;
952 -> 954 ;
955 [label="spell_error_count <= 7.5\ngini = 0.1975\nsamples = 9\nvalue = [8, 1]\nclass = spam"] ;
954 -> 955 ;
956 [label="gini = 0.0\nsamples = 1\nvalue = [0, 1]\nclass = ham"] ;
955 -> 956 ;
957 [label="gini = 0.0\nsamples = 8\nvalue = [8, 0]\nclass = spam"] ;
955 -> 957 ;
958 [label="gini = 0.0\nsamples = 3\nvalue = [0, 3]\nclass = ham"] ;
954 -> 958 ;
959 [label="gini = 0.0\nsamples = 16\nvalue = [16, 0]\nclass = spam"] ;
951 -> 959 ;
960 [label="raw_body_count_spaces <= 351.0\ngini = 0.1738\nsamples = 312\nvalue = [282, 30]\nclass = spam"] ;
922 -> 960 ;
961 [label="and <= 9.5\ngini = 0.3662\nsamples = 29\nvalue = [7, 22]\nclass = ham"] ;
960 -> 961 ;
962 [label="gini = 0.0\nsamples = 7\nvalue = [7, 0]\nclass = spam"] ;
961 -> 962 ;
963 [label="gini = 0.0\nsamples = 22\nvalue = [0, 22]\nclass = ham"] ;
961 -> 963 ;
964 [label="content_transfer_encoding, <= 19.5\ngini = 0.0549\nsamples = 283\nvalue = [275, 8]\nclass = spam"] ;
960 -> 964 ;
965 [label="headers_count <= 13.5\ngini = 0.0418\nsamples = 281\nvalue = [275, 6]\nclass = spam"] ;
964 -> 965 ;
966 [label="recipient_count <= 0.5\ngini = 0.1244\nsamples = 90\nvalue = [84, 6]\nclass = spam"] ;
965 -> 966 ;
967 [label="gini = 0.0\nsamples = 84\nvalue = [84, 0]\nclass = spam"] ;
966 -> 967 ;
968 [label="gini = 0.0\nsamples = 6\nvalue = [0, 6]\nclass = ham"] ;
966 -> 968 ;
969 [label="gini = 0.0\nsamples = 191\nvalue = [191, 0]\nclass = spam"] ;
965 -> 969 ;
970 [label="gini = 0.0\nsamples = 2\nvalue = [0, 2]\nclass = ham"] ;
964 -> 970 ;
971 [label="gini = 0.0\nsamples = 6\nvalue = [0, 6]\nclass = ham"] ;
919 -> 971 ;
972 [label="raw_mail_len <= 86.0\ngini = 0.4992\nsamples = 75\nvalue = [36, 39]\nclass = ham"] ;
918 -> 972 ;
973 [label="content_transfer_encoding, <= 9.5\ngini = 0.0588\nsamples = 33\nvalue = [32, 1]\nclass = spam"] ;
972 -> 973 ;
974 [label="gini = 0.0\nsamples = 1\nvalue = [0, 1]\nclass = ham"] ;
973 -> 974 ;
975 [label="gini = 0.0\nsamples = 32\nvalue = [32, 0]\nclass = spam"] ;
973 -> 975 ;
976 [label="subject_length <= 61.5\ngini = 0.1723\nsamples = 42\nvalue = [4, 38]\nclass = ham"] ;
972 -> 976 ;
977 [label="gini = 0.0\nsamples = 36\nvalue = [0, 36]\nclass = ham"] ;
976 -> 977 ;
978 [label="and <= 2.5\ngini = 0.4444\nsamples = 6\nvalue = [4, 2]\nclass = spam"] ;
976 -> 978 ;
979 [label="gini = 0.0\nsamples = 2\nvalue = [0, 2]\nclass = ham"] ;
978 -> 979 ;
980 [label="gini = 0.0\nsamples = 4\nvalue = [4, 0]\nclass = spam"] ;
978 -> 980 ;
981 [label="content_transfer_encoding, <= 15.5\ngini = 0.4343\nsamples = 6179\nvalue = [1970, 4209]\nclass = ham"] ;
897 -> 981 ;
982 [label="headers_count <= 19.5\ngini = 0.2829\nsamples = 3484\nvalue = [594, 2890]\nclass = ham"] ;
981 -> 982 ;
983 [label="mailer <= 425.0\ngini = 0.1703\nsamples = 3012\nvalue = [283, 2729]\nclass = ham"] ;
982 -> 983 ;
984 [label="content_transfer_encoding, <= 7.0\ngini = 0.4595\nsamples = 453\nvalue = [162, 291]\nclass = ham"] ;
983 -> 984 ;
985 [label="mailer <= 158.5\ngini = 0.4997\nsamples = 311\nvalue = [159, 152]\nclass = spam"] ;
984 -> 985 ;
986 [label="mailer <= 138.0\ngini = 0.3274\nsamples = 160\nvalue = [33, 127]\nclass = ham"] ;
985 -> 986 ;
987 [label="has_link <= 0.5\ngini = 0.2392\nsamples = 36\nvalue = [31, 5]\nclass = spam"] ;
986 -> 987 ;
988 [label="gini = 0.0\nsamples = 31\nvalue = [31, 0]\nclass = spam"] ;
987 -> 988 ;
989 [label="gini = 0.0\nsamples = 5\nvalue = [0, 5]\nclass = ham"] ;
987 -> 989 ;
990 [label="uppercase_count <= 705.5\ngini = 0.0317\nsamples = 124\nvalue = [2, 122]\nclass = ham"] ;
986 -> 990 ;
991 [label="mailer <= 155.0\ngini = 0.0161\nsamples = 123\nvalue = [1, 122]\nclass = ham"] ;
990 -> 991 ;
992 [label="gini = 0.0\nsamples = 114\nvalue = [0, 114]\nclass = ham"] ;
991 -> 992 ;
993 [label="raw_body_count_spaces <= 346.0\ngini = 0.1975\nsamples = 9\nvalue = [1, 8]\nclass = ham"] ;
991 -> 993 ;
994 [label="gini = 0.0\nsamples = 1\nvalue = [1, 0]\nclass = spam"] ;
993 -> 994 ;
995 [label="gini = 0.0\nsamples = 8\nvalue = [0, 8]\nclass = ham"] ;
993 -> 995 ;
996 [label="gini = 0.0\nsamples = 1\nvalue = [1, 0]\nclass = spam"] ;
990 -> 996 ;
997 [label="spaces_over_len <= 0.0825\ngini = 0.2763\nsamples = 151\nvalue = [126, 25]\nclass = spam"] ;
985 -> 997 ;
998 [label="gini = 0.0\nsamples = 9\nvalue = [0, 9]\nclass = ham"] ;
997 -> 998 ;
999 [label="content_transfer_encoding, <= 4.0\ngini = 0.2\nsamples = 142\nvalue = [126, 16]\nclass = spam"] ;
997 -> 999 ;
1000 [label="subject_length <= 13.5\ngini = 0.1975\nsamples = 9\nvalue = [1, 8]\nclass = ham"] ;
999 -> 1000 ;
1001 [label="gini = 0.0\nsamples = 1\nvalue = [1, 0]\nclass = spam"] ;
1000 -> 1001 ;
1002 [label="gini = 0.0\nsamples = 8\nvalue = [0, 8]\nclass = ham"] ;
1000 -> 1002 ;
1003 [label="recipient_count <= 0.5\ngini = 0.1131\nsamples = 133\nvalue = [125, 8]\nclass = spam"] ;
999 -> 1003 ;
1004 [label="gini = 0.0\nsamples = 3\nvalue = [0, 3]\nclass = ham"] ;
1003 -> 1004 ;
1005 [label="to <= 1.5\ngini = 0.074\nsamples = 130\nvalue = [125, 5]\nclass = spam"] ;
1003 -> 1005 ;
1006 [label="gini = 0.0\nsamples = 99\nvalue = [99, 0]\nclass = spam"] ;
1005 -> 1006 ;
1007 [label="spell_error_count <= 0.5\ngini = 0.2706\nsamples = 31\nvalue = [26, 5]\nclass = spam"] ;
1005 -> 1007 ;
1008 [label="gini = 0.0\nsamples = 4\nvalue = [0, 4]\nclass = ham"] ;
1007 -> 1008 ;
1009 [label="to <= 24.0\ngini = 0.0713\nsamples = 27\nvalue = [26, 1]\nclass = spam"] ;
1007 -> 1009 ;
1010 [label="gini = 0.0\nsamples = 24\nvalue = [24, 0]\nclass = spam"] ;
1009 -> 1010 ;
1011 [label="a <= 14.0\ngini = 0.4444\nsamples = 3\nvalue = [2, 1]\nclass = spam"] ;
1009 -> 1011 ;
1012 [label="gini = 0.0\nsamples = 1\nvalue = [0, 1]\nclass = ham"] ;
1011 -> 1012 ;
1013 [label="gini = 0.0\nsamples = 2\nvalue = [2, 0]\nclass = spam"] ;
1011 -> 1013 ;
1014 [label="uppercase_count <= 17.0\ngini = 0.0414\nsamples = 142\nvalue = [3, 139]\nclass = ham"] ;
984 -> 1014 ;
1015 [label="to <= 0.5\ngini = 0.5\nsamples = 2\nvalue = [1, 1]\nclass = spam"] ;
1014 -> 1015 ;
1016 [label="gini = 0.0\nsamples = 1\nvalue = [0, 1]\nclass = ham"] ;
1015 -> 1016 ;
1017 [label="gini = 0.0\nsamples = 1\nvalue = [1, 0]\nclass = spam"] ;
1015 -> 1017 ;
1018 [label="mailer <= 33.0\ngini = 0.0282\nsamples = 140\nvalue = [2, 138]\nclass = ham"] ;
1014 -> 1018 ;
1019 [label="gini = 0.0\nsamples = 1\nvalue = [1, 0]\nclass = spam"] ;
1018 -> 1019 ;
1020 [label="raw_mail_len <= 348.0\ngini = 0.0143\nsamples = 139\nvalue = [1, 138]\nclass = ham"] ;
1018 -> 1020 ;
1021 [label="raw_body_count_spaces <= 33.5\ngini = 0.1653\nsamples = 11\nvalue = [1, 10]\nclass = ham"] ;
1020 -> 1021 ;
1022 [label="gini = 0.0\nsamples = 10\nvalue = [0, 10]\nclass = ham"] ;
1021 -> 1022 ;
1023 [label="gini = 0.0\nsamples = 1\nvalue = [1, 0]\nclass = spam"] ;
1021 -> 1023 ;
1024 [label="gini = 0.0\nsamples = 128\nvalue = [0, 128]\nclass = ham"] ;
1020 -> 1024 ;
1025 [label="headers_count <= 18.5\ngini = 0.0901\nsamples = 2559\nvalue = [121, 2438]\nclass = ham"] ;
983 -> 1025 ;
1026 [label="the <= 108.0\ngini = 0.0673\nsamples = 2380\nvalue = [83, 2297]\nclass = ham"] ;
1025 -> 1026 ;
1027 [label="content_transfer_encoding, <= 8.5\ngini = 0.0658\nsamples = 2378\nvalue = [81, 2297]\nclass = ham"] ;
1026 -> 1027 ;
1028 [label="spell_error_count <= 12.5\ngini = 0.1095\nsamples = 1342\nvalue = [78, 1264]\nclass = ham"] ;
1027 -> 1028 ;
1029 [label="spaces_over_len <= 0.1787\ngini = 0.2391\nsamples = 461\nvalue = [64, 397]\nclass = ham"] ;
1028 -> 1029 ;
1030 [label="raw_body_count_spaces <= 56.5\ngini = 0.2058\nsamples = 438\nvalue = [51, 387]\nclass = ham"] ;
1029 -> 1030 ;
1031 [label="has_link <= 0.5\ngini = 0.0911\nsamples = 209\nvalue = [10, 199]\nclass = ham"] ;
1030 -> 1031 ;
1032 [label="spaces_over_len <= 0.1422\ngini = 0.3856\nsamples = 23\nvalue = [6, 17]\nclass = ham"] ;
1031 -> 1032 ;
1033 [label="spell_error_count <= 0.5\ngini = 0.255\nsamples = 20\nvalue = [3, 17]\nclass = ham"] ;
1032 -> 1033 ;
1034 [label="gini = 0.0\nsamples = 1\nvalue = [1, 0]\nclass = spam"] ;
1033 -> 1034 ;
1035 [label="subject_length <= 4.0\ngini = 0.1884\nsamples = 19\nvalue = [2, 17]\nclass = ham"] ;
1033 -> 1035 ;
1036 [label="gini = 0.0\nsamples = 1\nvalue = [1, 0]\nclass = spam"] ;
1035 -> 1036 ;
1037 [label="spaces_over_len <= 0.1259\ngini = 0.1049\nsamples = 18\nvalue = [1, 17]\nclass = ham"] ;
1035 -> 1037 ;
